{"learner":{"attributes":{"scikit_learn":"{\"_estimator_type\": \"regressor\"}"},"feature_names":["Week_of_Year","Month","Quarter","Is_Festive_Season","Avg_Price","Weekly_Price","Price_Elasticity","Units_Sold_MA2","Units_Sold_MA4","Category_Encoded","earbuds india","wireless earphones","bluetooth earbuds","best earbuds under 2000","noise earbuds","earbuds india_lag1","earbuds india_lag2","earbuds india_lag3","earbuds india_lag4","wireless earphones_lag1","wireless earphones_lag2","wireless earphones_lag3","wireless earphones_lag4","bluetooth earbuds_lag1","bluetooth earbuds_lag2","bluetooth earbuds_lag3","bluetooth earbuds_lag4","best earbuds under 2000_lag1","best earbuds under 2000_lag2","best earbuds under 2000_lag3","best earbuds under 2000_lag4","noise earbuds_lag1","noise earbuds_lag2","noise earbuds_lag3","noise earbuds_lag4","trend_momentum","trend_velocity"],"feature_types":["int","int","int","int","float","float","float","float","float","int","float","float","float","float","float","float","float","float","float","float","float","float","float","float","float","float","float","float","float","float","float","float","float","float","float","float","float"],"gradient_booster":{"model":{"cats":{"enc":[],"feature_segments":[],"sorted_idx":[]},"gbtree_model_param":{"num_parallel_tree":"1","num_trees":"200"},"iteration_indptr":[0,1,2,3,4,5,6,7,8,9,10,11,12,13,14,15,16,17,18,19,20,21,22,23,24,25,26,27,28,29,30,31,32,33,34,35,36,37,38,39,40,41,42,43,44,45,46,47,48,49,50,51,52,53,54,55,56,57,58,59,60,61,62,63,64,65,66,67,68,69,70,71,72,73,74,75,76,77,78,79,80,81,82,83,84,85,86,87,88,89,90,91,92,93,94,95,96,97,98,99,100,101,102,103,104,105,106,107,108,109,110,111,112,113,114,115,116,117,118,119,120,121,122,123,124,125,126,127,128,129,130,131,132,133,134,135,136,137,138,139,140,141,142,143,144,145,146,147,148,149,150,151,152,153,154,155,156,157,158,159,160,161,162,163,164,165,166,167,168,169,170,171,172,173,174,175,176,177,178,179,180,181,182,183,184,185,186,187,188,189,190,191,192,193,194,195,196,197,198,199,200],"tree_info":[0,0,0,0,0,0,0,0,0,0,0,0,0,0,0,0,0,0,0,0,0,0,0,0,0,0,0,0,0,0,0,0,0,0,0,0,0,0,0,0,0,0,0,0,0,0,0,0,0,0,0,0,0,0,0,0,0,0,0,0,0,0,0,0,0,0,0,0,0,0,0,0,0,0,0,0,0,0,0,0,0,0,0,0,0,0,0,0,0,0,0,0,0,0,0,0,0,0,0,0,0,0,0,0,0,0,0,0,0,0,0,0,0,0,0,0,0,0,0,0,0,0,0,0,0,0,0,0,0,0,0,0,0,0,0,0,0,0,0,0,0,0,0,0,0,0,0,0,0,0,0,0,0,0,0,0,0,0,0,0,0,0,0,0,0,0,0,0,0,0,0,0,0,0,0,0,0,0,0,0,0,0,0,0,0,0,0,0,0,0,0,0,0,0,0,0,0,0,0,0],"trees":[{"base_weights":[7.2034507E0,-3.7267886E2,7.9501855E2,-6.391294E2,-8.543646E1,9.2645703E2,4.2328427E2,-6.538023E1,-3.320781E1,2.2085222E1,-1.9888635E2,9.9575966E1,6.966647E1,5.0019253E1,2.4807227E2,6.750168E1,-2.8708286E1,-1.3262876E1,-2.724996E1,2.6224302E1,6.735315E0,7.6833725E1,2.825525E0,-4.594401E0,-4.3194187E1,8.025299E0,9.3531495E-1,9.529724E-1,-1.3244752E0,-4.4685893E0,-1.264685E0],"categories":[],"categories_nodes":[],"categories_segments":[],"categories_sizes":[],"default_left":[0,0,0,0,0,0,0,0,0,0,0,0,0,0,0,0,0,0,0,0,0,0,0,0,0,0,0,0,0,0,0],"id":0,"left_children":[1,3,5,7,9,11,13,-1,-1,15,17,-1,-1,-1,19,21,23,-1,-1,-1,-1,25,-1,27,29,-1,-1,-1,-1,-1,-1],"loss_changes":[7.4516984E7,1.2803422E7,3.56552E6,1.74852E5,1.0046549E6,2.4588E5,1.85847E5,0E0,0E0,1.0113288E5,1.5895625E5,0E0,0E0,0E0,5.385375E3,6.252797E3,7.137086E3,0E0,0E0,0E0,0E0,3.4025781E3,0E0,1.2258265E3,2.7242188E1,0E0,0E0,0E0,0E0,0E0,0E0],"parents":[2147483647,0,0,1,1,2,2,3,3,4,4,5,5,6,6,9,9,10,10,14,14,15,15,16,16,21,21,23,23,24,24],"right_children":[2,4,6,8,10,12,14,-1,-1,16,18,-1,-1,-1,20,22,24,-1,-1,-1,-1,26,-1,28,30,-1,-1,-1,-1,-1,-1],"split_conditions":[1.196E3,6.67E2,3.652E2,4.0629166E2,6.8234E2,3.6095E2,3.7285E2,-6.538023E1,-3.320781E1,6.7746E2,6.881E2,9.9575966E1,6.966647E1,5.0019253E1,3.7832E2,6.7619E2,6.7938E2,-1.3262876E1,-2.724996E1,2.6224302E1,6.735315E0,1.1675E3,2.825525E0,6.7851E2,4.3E1,8.025299E0,9.3531495E-1,9.529724E-1,-1.3244752E0,-4.4685893E0,-1.264685E0],"split_indices":[7,7,5,4,5,5,5,0,0,5,5,0,0,0,5,5,5,0,0,0,0,7,0,5,0,0,0,0,0,0,0],"split_type":[0,0,0,0,0,0,0,0,0,0,0,0,0,0,0,0,0,0,0,0,0,0,0,0,0,0,0,0,0,0,0],"sum_hessian":[2.47E2,1.67E2,8E1,8.6E1,8.1E1,5.8E1,2.2E1,8.1E1,5E0,4.2E1,3.9E1,4.2E1,1.6E1,1.4E1,8E0,2.2E1,2E1,2.2E1,1.7E1,7E0,1E0,1.7E1,5E0,8E0,1.2E1,1.6E1,1E0,3E0,5E0,1.1E1,1E0],"tree_param":{"num_deleted":"0","num_feature":"37","num_nodes":"31","size_leaf_vector":"1"}},{"base_weights":[-4.307034E0,7.3004016E2,-3.296806E2,8.1757104E2,3.6164253E1,-6.985962E1,-5.917903E2,9.05235E1,6.41E1,2.4413212E1,-1.8167918E2,-6.0125637E1,-3.238687E1,7.4559685E1,-2.269807E1,-1.1202929E1,-2.4224514E1,9.953649E0,4.769011E1,1.2352905E1,-3.7015278E1,5.2532907E0,2.36606E0,1.600653E0,9.280192E-2,-2.2470806E0,-4.640378E0],"categories":[],"categories_nodes":[],"categories_segments":[],"categories_sizes":[],"default_left":[0,0,0,0,0,0,0,0,0,0,0,0,0,0,0,0,0,0,0,0,0,0,0,0,0,0,0],"id":1,"left_children":[1,3,5,7,-1,9,11,-1,-1,13,15,-1,-1,17,19,-1,-1,-1,21,23,25,-1,-1,-1,-1,-1,-1],"loss_changes":[5.7585596E7,2.090548E6,1.1331626E7,3.33E5,0E0,9.004669E5,1.5772E4,0E0,0E0,1.1272819E5,1.3737962E5,0E0,0E0,1.0688758E4,1.3003048E4,0E0,0E0,0E0,2.698457E2,3.1908374E2,1.4151836E3,0E0,0E0,0E0,0E0,0E0,0E0],"parents":[2147483647,0,0,1,1,2,2,3,3,5,5,6,6,9,9,10,10,13,13,14,14,18,18,19,19,20,20],"right_children":[2,4,6,8,-1,10,12,-1,-1,14,16,-1,-1,18,20,-1,-1,-1,22,24,26,-1,-1,-1,-1,-1,-1],"split_conditions":[9.27657E-1,9.0066427E-1,9.6086955E-1,8.8635266E-1,3.6164253E1,9.449275E-1,4.0629166E2,9.05235E1,6.41E1,9.377415E-1,9.513889E-1,-6.0125637E1,-3.238687E1,9.3448067E-1,9.402174E-1,-1.1202929E1,-2.4224514E1,9.953649E0,9.369565E-1,9.3858695E-1,9.4172704E-1,5.2532907E0,2.36606E0,1.600653E0,9.280192E-2,-2.2470806E0,-4.640378E0],"split_indices":[6,6,6,6,0,6,4,0,0,6,6,0,0,6,6,0,0,0,6,6,6,0,0,0,0,0,0],"split_type":[0,0,0,0,0,0,0,0,0,0,0,0,0,0,0,0,0,0,0,0,0,0,0,0,0,0,0],"sum_hessian":[2.39E2,7.3E1,1.66E2,5.8E1,1.5E1,8.4E1,8.2E1,3.6E1,2.2E1,4.6E1,3.8E1,7.8E1,4E0,2.2E1,2.4E1,1.9E1,1.9E1,1E1,1.2E1,7E0,1.7E1,9E0,3E0,5E0,2E0,8E0,9E0],"tree_param":{"num_deleted":"0","num_feature":"37","num_nodes":"27","size_leaf_vector":"1"}},{"base_weights":[3.099561E0,6.5156036E2,-2.9278006E2,7.701578E1,3.9304706E2,-6.0332947E1,-5.24473E2,2.6321E1,4.762612E1,1.5572413E1,-1.7704967E2,-1.4882843E1,-5.2734413E1,6.981027E1,-2.2913168E1,-1.0858729E1,-2.3107016E1,9.576777E0,4.6469673E1,5.0107064E0,-3.934334E1,5.0006943E0,1.8009806E0,1.3169625E0,-9.045703E-1,-2.3798428E0,-4.848524E0],"categories":[],"categories_nodes":[],"categories_segments":[],"categories_sizes":[],"default_left":[0,0,0,0,0,0,0,0,0,0,0,0,0,0,0,0,0,0,0,0,0,0,0,0,0,0,0],"id":2,"left_children":[1,3,5,-1,7,9,11,-1,-1,13,15,-1,-1,17,19,-1,-1,-1,21,23,25,-1,-1,-1,-1,-1,-1],"loss_changes":[4.470376E7,1.9354E6,8.585375E6,0E0,1.4475025E5,7.203705E5,7.798E3,0E0,0E0,1.0596835E5,9.325656E4,0E0,0E0,8.272828E3,1.3960963E4,0E0,0E0,0E0,4.0809766E2,1.4953496E3,1.5462168E3,0E0,0E0,0E0,0E0,0E0,0E0],"parents":[2147483647,0,0,1,1,2,2,4,4,5,5,6,6,9,9,10,10,13,13,14,14,18,18,19,19,20,20],"right_children":[2,4,6,-1,8,10,12,-1,-1,14,16,-1,-1,18,20,-1,-1,-1,22,24,26,-1,-1,-1,-1,-1,-1],"split_conditions":[9.27657E-1,8.963768E-1,9.6086955E-1,7.701578E1,2.3E1,9.460749E-1,9.6322465E-1,2.6321E1,4.762612E1,9.377415E-1,9.5289856E-1,-1.4882843E1,-5.2734413E1,9.336957E-1,9.406401E-1,-1.0858729E1,-2.3107016E1,9.576777E0,9.369565E-1,9.396135E-1,9.420894E-1,5.0006943E0,1.8009806E0,1.3169625E0,-9.045703E-1,-2.3798428E0,-4.848524E0],"split_indices":[6,6,6,0,24,6,6,0,0,6,6,0,0,6,6,0,0,0,6,6,6,0,0,0,0,0,0],"split_type":[0,0,0,0,0,0,0,0,0,0,0,0,0,0,0,0,0,0,0,0,0,0,0,0,0,0,0],"sum_hessian":[2.31E2,7.2E1,1.59E2,4.8E1,2.4E1,8E1,7.9E1,1.1E1,1.3E1,4.9E1,3.1E1,1E0,7.8E1,2E1,2.9E1,1.5E1,1.6E1,8E0,1.2E1,1.1E1,1.8E1,1E1,2E0,7E0,4E0,8E0,1E1],"tree_param":{"num_deleted":"0","num_feature":"37","num_nodes":"27","size_leaf_vector":"1"}},{"base_weights":[-2.4901968E1,-2.8883493E2,5.615582E2,-4.759714E2,-5.960845E1,6.651736E2,2.7228473E2,-4.853337E1,-2.5776876E1,2.217214E1,-1.5563504E2,7.876959E1,5.6272694E1,2.923092E1,1.0909723E1,5.783097E1,-1.4494515E1,-1.0042015E1,-2.1143873E1,6.6371613E0,3.004793E0,9.76593E0,-2.646712E1,1.2656891E0,7.2869875E-2,-1.2787007E0,-3.2028472E0],"categories":[],"categories_nodes":[],"categories_segments":[],"categories_sizes":[],"default_left":[0,0,0,0,0,0,0,0,0,0,0,0,0,0,0,0,0,0,0,0,0,0,0,0,0,0,0],"id":3,"left_children":[1,3,5,7,9,11,13,-1,-1,15,17,-1,-1,-1,-1,19,21,-1,-1,-1,-1,23,25,-1,-1,-1,-1],"loss_changes":[3.8394384E7,7.306952E6,2.126818E6,6.6928E4,6.159934E5,2.59654E5,4.0000375E4,0E0,0E0,5.7060305E4,8.969025E4,0E0,0E0,0E0,0E0,3.2259453E3,6.648611E3,0E0,0E0,0E0,0E0,1.9978723E2,7.316504E2,0E0,0E0,0E0,0E0],"parents":[2147483647,0,0,1,1,2,2,3,3,4,4,5,5,6,6,9,9,10,10,15,15,16,16,21,21,22,22],"right_children":[2,4,6,8,10,12,14,-1,-1,16,18,-1,-1,-1,-1,20,22,-1,-1,-1,-1,24,26,-1,-1,-1,-1],"split_conditions":[1.1675E3,6.67E2,3.6743E2,3.5656E2,6.8234E2,3.5852E2,3.7459E2,-4.853337E1,-2.5776876E1,6.7715E2,6.881E2,7.876959E1,5.6272694E1,2.923092E1,1.0909723E1,6.7545E2,6.7894E2,-1.0042015E1,-2.1143873E1,6.6371613E0,3.004793E0,6.7794E2,6.796E2,1.2656891E0,7.2869875E-2,-1.2787007E0,-3.2028472E0],"split_indices":[7,7,5,5,5,5,5,0,0,5,5,0,0,0,0,5,5,0,0,0,0,5,5,0,0,0,0],"split_type":[0,0,0,0,0,0,0,0,0,0,0,0,0,0,0,0,0,0,0,0,0,0,0,0,0,0,0],"sum_hessian":[2.46E2,1.7E2,7.6E1,9.3E1,7.7E1,5.5E1,2.1E1,8.8E1,5E0,4.2E1,3.5E1,2.2E1,3.3E1,1.8E1,3E0,2.1E1,2.1E1,1.9E1,1.6E1,1.5E1,6E0,7E0,1.4E1,5E0,2E0,5E0,9E0],"tree_param":{"num_deleted":"0","num_feature":"37","num_nodes":"27","size_leaf_vector":"1"}},{"base_weights":[-5.6531677E0,-2.5416339E2,5.0640588E2,-4.219603E2,-6.2512985E1,6.012634E2,2.4816182E2,-4.3233743E2,-2.3567226E1,1.1052162E1,-1.3819357E2,6.8434204E1,4.888572E1,2.9603872E1,1.646674E2,-3.8337826E1,-4.7783203E1,4.2931194E1,-2.6161335E1,-9.98355E1,-1.9546797E1,1.7138105E1,4.8765445E0,5.66574E1,1.9421392E1,-9.968094E0,-3.4113996E0,-7.416356E0,-1.1654263E1,6.07123E0,1.9718324E-1,2.1570756E0,7.215963E-1,6.801148E-2,-1.3630849E0],"categories":[],"categories_nodes":[],"categories_segments":[],"categories_sizes":[],"default_left":[0,0,0,0,0,0,0,0,0,0,0,0,0,0,0,0,0,0,0,0,0,0,0,0,0,0,0,0,0,0,0,0,0,0,0],"id":4,"left_children":[1,3,5,7,9,11,13,15,-1,17,19,-1,-1,-1,21,-1,-1,23,25,27,-1,-1,-1,29,31,33,-1,-1,-1,-1,-1,-1,-1,-1,-1],"loss_changes":[3.2323442E7,5.472698E6,1.88399E6,7.4027E4,4.5249106E5,2.25766E5,4.7191E4,6.137E3,0E0,5.0949008E4,6.836275E4,0E0,0E0,0E0,2.0190625E2,0E0,0E0,6.321742E3,2.2355352E3,2.5082969E3,0E0,0E0,0E0,2.9847148E3,1.066853E2,3.2128485E2,0E0,0E0,0E0,0E0,0E0,0E0,0E0,0E0,0E0],"parents":[2147483647,0,0,1,1,2,2,3,3,4,4,5,5,6,6,7,7,9,9,10,10,14,14,17,17,18,18,19,19,23,23,24,24,25,25],"right_children":[2,4,6,8,10,12,14,16,-1,18,20,-1,-1,-1,22,-1,-1,24,26,28,-1,-1,-1,30,32,34,-1,-1,-1,-1,-1,-1,-1,-1,-1],"split_conditions":[1.196E3,6.67E2,3.6669E2,4.0629166E2,6.8317E2,3.5941E2,3.7337E2,3.532E2,-2.3567226E1,6.7794E2,6.8897E2,6.8434204E1,4.888572E1,2.9603872E1,3.7832E2,-3.8337826E1,-4.7783203E1,6.7589E2,6.7986E2,6.8452E2,-1.9546797E1,1.7138105E1,4.8765445E0,1.1675E3,6.7746E2,6.7894E2,-3.4113996E0,-7.416356E0,-1.1654263E1,6.07123E0,1.9718324E-1,2.1570756E0,7.215963E-1,6.801148E-2,-1.3630849E0],"split_indices":[7,7,5,4,5,5,5,5,0,5,5,0,0,0,5,0,0,5,5,5,0,0,0,7,5,5,0,0,0,0,0,0,0,0,0],"split_type":[0,0,0,0,0,0,0,0,0,0,0,0,0,0,0,0,0,0,0,0,0,0,0,0,0,0,0,0,0,0,0,0,0,0,0],"sum_hessian":[2.52E2,1.7E2,8.2E1,9E1,8E1,5.9E1,2.3E1,8.4E1,6E0,4.1E1,3.9E1,3.1E1,2.8E1,1.3E1,1E1,4.5E1,3.9E1,2.2E1,1.9E1,2.5E1,1.4E1,9E0,1E0,1.3E1,9E0,7E0,1.2E1,1.2E1,1.3E1,1.2E1,1E0,7E0,2E0,2E0,5E0],"tree_param":{"num_deleted":"0","num_feature":"37","num_nodes":"35","size_leaf_vector":"1"}},{"base_weights":[-2.5151088E0,4.8008078E2,-2.34035E2,5.9770313E1,3.1769342E2,-4.8002644E1,-3.862721E2,3.75901E1,1.952166E1,1.2649002E1,-1.1719232E2,-3.1448774E1,-4.1456505E1,5.6053722E1,-1.2605445E1,-7.631543E0,-1.5610042E1,7.9246073E0,4.1719103E0,8.392705E0,-2.6686172E1,1.1218665E0,-3.8247272E-1,-1.2861276E0,-3.3057816E0],"categories":[],"categories_nodes":[],"categories_segments":[],"categories_sizes":[],"default_left":[0,0,0,0,0,0,0,0,0,0,0,0,0,0,0,0,0,0,0,0,0,0,0,0,0],"id":5,"left_children":[1,3,5,-1,7,9,11,-1,-1,13,15,-1,-1,17,19,-1,-1,-1,-1,21,23,-1,-1,-1,-1],"loss_changes":[2.8603646E7,1.395446E6,4.880995E6,0E0,1.90394E5,3.330033E5,6.2569E4,0E0,0E0,4.7841555E4,4.69335E4,0E0,0E0,2.0131836E3,8.502707E3,0E0,0E0,0E0,0E0,4.5721997E2,1.0723184E3,0E0,0E0,0E0,0E0],"parents":[2147483647,0,0,1,1,2,2,4,4,5,5,6,6,9,9,10,10,13,13,14,14,19,19,20,20],"right_children":[2,4,6,-1,8,10,12,-1,-1,14,16,-1,-1,18,20,-1,-1,-1,-1,22,24,-1,-1,-1,-1],"split_conditions":[9.27657E-1,8.929952E-1,9.603261E-1,5.9770313E1,3.7054E2,6.8239E2,9.774758E-1,3.75901E1,1.952166E1,9.369565E-1,6.8635E2,-3.1448774E1,-4.1456505E1,9.3278986E-1,6.7907E2,-7.631543E0,-1.5610042E1,7.9246073E0,4.1719103E0,6.7851E2,6.799E2,1.1218665E0,-3.8247272E-1,-1.2861276E0,-3.3057816E0],"split_indices":[6,6,6,0,5,5,6,0,0,6,5,0,0,6,5,0,0,0,0,5,5,0,0,0,0],"split_type":[0,0,0,0,0,0,0,0,0,0,0,0,0,0,0,0,0,0,0,0,0,0,0,0,0],"sum_hessian":[2.54E2,8.2E1,1.72E2,4.6E1,3.6E1,7.8E1,9.4E1,2.3E1,1.3E1,4.2E1,3.6E1,3E1,6.4E1,1.5E1,2.7E1,1.9E1,1.7E1,4E0,1.1E1,1.1E1,1.6E1,9E0,2E0,6E0,1E1],"tree_param":{"num_deleted":"0","num_feature":"37","num_nodes":"25","size_leaf_vector":"1"}},{"base_weights":[7.608445E0,4.3585645E2,-2.065631E2,5.4589374E2,2.9987064E2,-2.8278173E1,-3.4143542E2,6.119816E1,4.4751694E1,3.506654E1,1.8774633E1,2.0811922E1,-8.722304E1,-1.982836E1,-3.5666058E1,5.171433E1,-8.138442E0,-5.659768E0,-1.276295E1,7.3218875E0,3.6156938E0,8.1377945E0,-1.6857832E1,9.473725E-2,1.2262573E0,-7.997449E-1,-1.960224E0],"categories":[],"categories_nodes":[],"categories_segments":[],"categories_sizes":[],"default_left":[0,0,0,0,0,0,0,0,0,0,0,0,0,0,0,0,0,0,0,0,0,0,0,0,0,0,0],"id":6,"left_children":[1,3,5,7,9,11,13,-1,-1,-1,-1,15,17,-1,-1,19,21,-1,-1,-1,-1,23,25,-1,-1,-1,-1],"loss_changes":[2.2010762E7,1.033384E6,3.8376575E6,5.692E3,1.5058625E5,2.043679E5,1.27614E5,0E0,0E0,0E0,0E0,3.5311676E4,3.2375266E4,0E0,0E0,3.709168E3,3.1174814E3,0E0,0E0,0E0,0E0,2.2565399E2,1.8366309E2,0E0,0E0,0E0,0E0],"parents":[2147483647,0,0,1,1,2,2,3,3,4,4,5,5,6,6,11,11,12,12,15,15,16,16,21,21,22,22],"right_children":[2,4,6,8,10,12,14,-1,-1,-1,-1,16,18,-1,-1,20,22,-1,-1,-1,-1,24,26,-1,-1,-1,-1],"split_conditions":[9.27657E-1,3.623E2,9.58756E-1,3.572E2,3.6949E2,6.8095E2,9.741546E-1,6.119816E1,4.4751694E1,3.506654E1,1.8774633E1,9.369565E-1,6.8513E2,-1.982836E1,-3.5666058E1,6.7414E2,6.7894E2,-5.659768E0,-1.276295E1,7.3218875E0,3.6156938E0,2.7E1,6.7938E2,9.473725E-2,1.2262573E0,-7.997449E-1,-1.960224E0],"split_indices":[6,5,6,5,5,5,6,0,0,0,0,6,5,0,0,5,5,0,0,0,0,13,5,0,0,0,0],"split_type":[0,0,0,0,0,0,0,0,0,0,0,0,0,0,0,0,0,0,0,0,0,0,0,0,0,0,0],"sum_hessian":[2.38E2,7.9E1,1.59E2,4.2E1,3.7E1,6.9E1,9E1,2.2E1,2E1,2.4E1,1.3E1,3.8E1,3.1E1,1E1,8E1,1.8E1,2E1,1.9E1,1.2E1,6E0,1.2E1,7E0,1.3E1,3E0,4E0,4E0,9E0],"tree_param":{"num_deleted":"0","num_feature":"37","num_nodes":"27","size_leaf_vector":"1"}},{"base_weights":[1.4248381E1,3.9004956E2,-1.7036208E2,4.8025955E2,2.4856903E2,-2.6910292E1,-3.0196243E2,5.559228E1,4.0890823E1,3.0490479E1,1.5688344E1,1.2816664E1,-7.948905E1,-1.633472E1,-3.1784305E2,3.9303585E1,-1.2063972E1,-5.2229877E0,-9.969521E0,-2.7633661E1,-3.552463E1,5.2880216E0,2.4792316E1,2.901535E0,-1.8045088E1,2.6524787E0,1.0175823E0,5.5360925E-1,-3.3347577E-1,-9.1538805E-1,-2.0760639E0],"categories":[],"categories_nodes":[],"categories_segments":[],"categories_sizes":[],"default_left":[0,0,0,0,0,0,0,0,0,0,0,0,0,0,0,0,0,0,0,0,0,0,0,0,0,0,0,0,0,0,0],"id":7,"left_children":[1,3,5,7,9,11,13,-1,-1,-1,-1,15,17,-1,19,21,23,-1,-1,-1,-1,-1,25,27,29,-1,-1,-1,-1,-1,-1],"loss_changes":[1.7271904E7,9.27184E5,3.144552E6,3.7214E4,1.277815E5,1.702111E5,1.39594E5,0E0,0E0,0E0,0E0,3.1447695E4,1.4071047E4,0E0,2.13725E4,3.2203008E3,2.290119E3,0E0,0E0,0E0,0E0,0E0,5.9282715E1,1.4990047E2,2.4456152E2,0E0,0E0,0E0,0E0,0E0,0E0],"parents":[2147483647,0,0,1,1,2,2,3,3,4,4,5,5,6,6,11,11,12,12,14,14,15,15,16,16,22,22,23,23,24,24],"right_children":[2,4,6,8,10,12,14,-1,-1,-1,-1,16,18,-1,20,22,24,-1,-1,-1,-1,-1,26,28,30,-1,-1,-1,-1,-1,-1],"split_conditions":[9.27657E-1,8.9432365E-1,9.581522E-1,8.7795895E-1,9.1346616E-1,9.432367E-1,9.66244E-1,5.559228E1,4.0890823E1,3.0490479E1,1.5688344E1,9.379227E-1,9.485507E-1,-1.633472E1,9.7971016E-1,9.347826E-1,9.403986E-1,-5.2229877E0,-9.969521E0,-2.7633661E1,-3.552463E1,5.2880216E0,9.3719804E-1,9.396135E-1,9.411232E-1,2.6524787E0,1.0175823E0,5.5360925E-1,-3.3347577E-1,-9.1538805E-1,-2.0760639E0],"split_indices":[6,6,6,6,6,6,6,0,0,0,0,6,6,0,6,6,6,0,0,0,0,0,6,6,6,0,0,0,0,0,0],"split_type":[0,0,0,0,0,0,0,0,0,0,0,0,0,0,0,0,0,0,0,0,0,0,0,0,0,0,0,0,0,0,0],"sum_hessian":[2.47E2,8.1E1,1.66E2,4.8E1,3.3E1,8E1,8.6E1,2E1,2.8E1,1.9E1,1.4E1,4.6E1,3.4E1,1E1,7.6E1,2.2E1,2.4E1,1.6E1,1.8E1,4E1,3.6E1,1E1,1.2E1,7E0,1.7E1,1E1,2E0,5E0,2E0,5E0,1.2E1],"tree_param":{"num_deleted":"0","num_feature":"37","num_nodes":"31","size_leaf_vector":"1"}},{"base_weights":[-6.8192816E0,3.3814203E2,-1.5986827E2,4.1624136E2,1.8388243E2,-2.2100334E1,-2.7221518E2,4.866037E1,3.4088676E1,2.2002317E1,1.20371275E1,9.875094E0,-7.2524345E1,-2.0657925E1,-2.97311E1,3.1678839E1,-1.1451504E1,-4.6890845E0,-9.202298E0,4.027438E0,1.7859163E1,3.8684955E0,-1.6493004E1,1.8581213E0,5.319336E-1,-2.3362225E-2,5.556067E-1,-1.1028953E0,-2.1338732E0],"categories":[],"categories_nodes":[],"categories_segments":[],"categories_sizes":[],"default_left":[0,0,0,0,0,0,0,0,0,0,0,0,0,0,0,0,0,0,0,0,0,0,0,0,0,0,0,0,0],"id":8,"left_children":[1,3,5,7,9,11,13,-1,-1,-1,-1,15,17,-1,-1,19,21,-1,-1,-1,23,25,27,-1,-1,-1,-1,-1,-1],"loss_changes":[1.2883482E7,8.27028E5,2.6097325E6,9.3927E4,3.5489688E4,1.2486556E5,9.177E4,0E0,0E0,0E0,0E0,2.2682756E4,1.06795E4,0E0,0E0,2.1316348E3,1.9946973E3,0E0,0E0,0E0,7.583008E-1,4.9756348E1,2.677251E2,0E0,0E0,0E0,0E0,0E0,0E0],"parents":[2147483647,0,0,1,1,2,2,3,3,4,4,5,5,6,6,11,11,12,12,15,15,16,16,20,20,21,21,22,22],"right_children":[2,4,6,8,10,12,14,-1,-1,-1,-1,16,18,-1,-1,20,22,-1,-1,-1,24,26,28,-1,-1,-1,-1,-1,-1],"split_conditions":[9.30314E-1,3.652E2,9.581522E-1,3.5806E2,3.7185E2,6.8112E2,9.763285E-1,4.866037E1,3.4088676E1,2.2002317E1,1.20371275E1,9.3816423E-1,6.8496E2,-2.0657925E1,-2.97311E1,6.7545E2,6.7894E2,-4.6890845E0,-9.202298E0,4.027438E0,6.7728E2,2.7E1,6.8029E2,1.8581213E0,5.319336E-1,-2.3362225E-2,5.556067E-1,-1.1028953E0,-2.1338732E0],"split_indices":[6,5,6,5,5,5,6,0,0,0,0,6,5,0,0,5,5,0,0,0,5,11,5,0,0,0,0,0,0],"split_type":[0,0,0,0,0,0,0,0,0,0,0,0,0,0,0,0,0,0,0,0,0,0,0,0,0,0,0,0,0],"sum_hessian":[2.42E2,7.4E1,1.68E2,4.8E1,2.6E1,7.6E1,9.2E1,2.2E1,2.6E1,1.5E1,1.1E1,4.7E1,2.9E1,2.8E1,6.4E1,2.3E1,2.4E1,1.4E1,1.5E1,1.3E1,1E1,6E0,1.8E1,9E0,1E0,2E0,4E0,1E1,8E0],"tree_param":{"num_deleted":"0","num_feature":"37","num_nodes":"29","size_leaf_vector":"1"}},{"base_weights":[1.5379736E0,3.315411E2,-1.509286E2,4.093651E2,2.220091E2,-2.1945606E1,-2.4910178E2,4.7642067E1,3.470162E1,2.6037113E1,1.4586814E1,1.9267565E1,-6.479339E1,-2.0232881E2,-2.811406E1,4.5571304E1,-1.0120505E0,-4.0974712E1,-9.040508E1,-1.257385E1,-2.1624266E1,6.145322E0,2.8308644E0,9.832758E0,-1.0110577E1,-2.4101074E0,-4.769003E0,-6.4666686E0,-1.0609847E1,1.3433797E0,4.5929262E-1,-4.470862E-1,-1.2120355E0],"categories":[],"categories_nodes":[],"categories_segments":[],"categories_sizes":[],"default_left":[0,0,0,0,0,0,0,0,0,0,0,0,0,0,0,0,0,0,0,0,0,0,0,0,0,0,0,0,0,0,0,0,0],"id":9,"left_children":[1,3,5,7,9,11,13,-1,-1,-1,-1,15,17,19,-1,21,23,25,27,-1,-1,-1,-1,29,31,-1,-1,-1,-1,-1,-1,-1,-1],"loss_changes":[1.2578338E7,5.82529E5,2.1598498E6,2.2812E4,6.4252375E4,1.3369039E5,8.84765E4,0E0,0E0,0E0,0E0,2.084988E4,1.8867031E4,1.8633625E4,0E0,2.921129E3,2.3688657E3,1.230168E3,5.65625E0,0E0,0E0,0E0,0E0,1.4585669E2,9.316101E1,0E0,0E0,0E0,0E0,0E0,0E0,0E0,0E0],"parents":[2147483647,0,0,1,1,2,2,3,3,4,4,5,5,6,6,11,11,12,12,13,13,15,15,16,16,17,17,18,18,23,23,24,24],"right_children":[2,4,6,8,10,12,14,-1,-1,-1,-1,16,18,20,-1,22,24,26,28,-1,-1,-1,-1,30,32,-1,-1,-1,-1,-1,-1,-1,-1],"split_conditions":[9.219807E-1,3.623E2,9.58756E-1,3.5517E2,3.6949E2,6.8038E2,9.780193E-1,4.7642067E1,3.470162E1,2.6037113E1,1.4586814E1,9.3550724E-1,6.8544E2,9.6497583E-1,-2.811406E1,9.3357486E-1,6.7851E2,6.8317E2,6.8871E2,-1.257385E1,-2.1624266E1,6.145322E0,2.8308644E0,9.379227E-1,6.7925E2,-2.4101074E0,-4.769003E0,-6.4666686E0,-1.0609847E1,1.3433797E0,4.5929262E-1,-4.470862E-1,-1.2120355E0],"split_indices":[6,5,6,5,5,5,6,0,0,0,0,6,5,6,0,6,5,5,5,0,0,0,0,6,5,0,0,0,0,0,0,0,0],"split_type":[0,0,0,0,0,0,0,0,0,0,0,0,0,0,0,0,0,0,0,0,0,0,0,0,0,0,0,0,0,0,0,0,0],"sum_hessian":[2.48E2,7.8E1,1.7E2,4.4E1,3.4E1,7.4E1,9.6E1,1.8E1,2.6E1,2.1E1,1.3E1,3.8E1,3.6E1,4.2E1,5.4E1,1.6E1,2.2E1,2E1,1.6E1,8E0,3.4E1,7E0,9E0,1E1,1.2E1,7E0,1.3E1,8E0,8E0,5E0,5E0,4E0,8E0],"tree_param":{"num_deleted":"0","num_feature":"37","num_nodes":"33","size_leaf_vector":"1"}},{"base_weights":[-4.4238973E0,2.867704E2,-1.3779544E2,3.6462857E2,1.9590356E2,-3.1293123E1,-2.3163652E2,4.2059246E1,3.075109E1,2.4080416E1,1.27647064E2,5.437396E-1,-8.403992E1,-2.0806227E2,-2.861966E1,1.3969192E1,6.839209E0,2.391405E1,-2.04277E1,-5.900105E0,-1.12018385E1,-1.0418576E1,-2.1115843E1,3.1378914E1,8.832373E0,-9.928515E0,-2.9565039E0,3.9684467E0,2.3240936E0,1.2612524E0,4.2101845E-1,-5.7912064E-1,-1.2824761E0],"categories":[],"categories_nodes":[],"categories_segments":[],"categories_sizes":[],"default_left":[0,0,0,0,0,0,0,0,0,0,0,0,0,0,0,0,0,0,0,0,0,0,0,0,0,0,0,0,0,0,0,0,0],"id":10,"left_children":[1,3,5,7,9,11,13,-1,-1,-1,15,17,19,21,-1,-1,-1,23,25,-1,-1,-1,-1,27,29,31,-1,-1,-1,-1,-1,-1,-1],"loss_changes":[1.0137145E7,5.08695E5,1.7817295E6,8.114E3,9.1852375E4,1.4278555E5,6.26435E4,0E0,0E0,0E0,3.2930938E3,2.6954396E4,1.5808391E4,5.1375E2,0E0,0E0,0E0,2.65E3,2.4885664E3,0E0,0E0,0E0,0E0,2.2673242E2,1.2162463E2,1.0546912E2,0E0,0E0,0E0,0E0,0E0,0E0,0E0],"parents":[2147483647,0,0,1,1,2,2,3,3,4,4,5,5,6,6,10,10,11,11,12,12,13,13,17,17,18,18,23,23,24,24,25,25],"right_children":[2,4,6,8,10,12,14,-1,-1,-1,16,18,20,22,-1,-1,-1,24,26,-1,-1,-1,-1,28,30,32,-1,-1,-1,-1,-1,-1,-1],"split_conditions":[9.3115944E-1,3.623E2,9.6086955E-1,3.5615E2,3.6932E2,6.8374E2,9.813406E-1,4.2059246E1,3.075109E1,2.4080416E1,3.7393E2,6.7851E2,6.898E2,9.66244E-1,-2.861966E1,1.3969192E1,6.839209E0,9.3599033E-1,6.8047E2,-5.900105E0,-1.12018385E1,-1.0418576E1,-2.1115843E1,9.3411833E-1,9.379227E-1,6.7973E2,-2.9565039E0,3.9684467E0,2.3240936E0,1.2612524E0,4.2101845E-1,-5.7912064E-1,-1.2824761E0],"split_indices":[6,5,6,5,5,5,6,0,0,0,5,5,5,6,0,0,0,6,5,0,0,0,0,6,6,5,0,0,0,0,0,0,0],"split_type":[0,0,0,0,0,0,0,0,0,0,0,0,0,0,0,0,0,0,0,0,0,0,0,0,0,0,0,0,0,0,0,0,0],"sum_hessian":[2.59E2,8.1E1,1.78E2,4.2E1,3.9E1,8.4E1,9.4E1,1.8E1,2.4E1,2.2E1,1.7E1,5.3E1,3.1E1,6.9E1,2.5E1,1.3E1,4E0,2.5E1,2.8E1,1.8E1,1.3E1,3E0,6.6E1,1.6E1,9E0,1.4E1,1.4E1,6E0,1E1,4E0,5E0,7E0,7E0],"tree_param":{"num_deleted":"0","num_feature":"37","num_nodes":"33","size_leaf_vector":"1"}},{"base_weights":[-6.4210978E0,2.5259361E2,-1.2097656E2,3.212797E2,1.7307512E2,-2.5779276E1,-2.1246706E2,3.8571323E1,2.7234577E1,2.0051895E1,9.247381E0,1.1829995E0,-7.255332E1,-1.8618465E1,-2.5139555E1,2.1600561E1,-1.645914E1,-5.0396686E0,-9.765071E0,3.139911E0,1.165891E1,-8.562612E0,-2.5519283E0,1.4759874E0,5.0643104E-1,-2.7088317E-1,-1.0775951E0],"categories":[],"categories_nodes":[],"categories_segments":[],"categories_sizes":[],"default_left":[0,0,0,0,0,0,0,0,0,0,0,0,0,0,0,0,0,0,0,0,0,0,0,0,0,0,0],"id":11,"left_children":[1,3,5,7,9,11,13,-1,-1,-1,-1,15,17,-1,-1,19,21,-1,-1,-1,23,25,-1,-1,-1,-1,-1],"loss_changes":[7.062716E6,3.43107E5,1.4316142E6,1.476625E4,6.10895E4,1.0349886E5,3.91375E4,0E0,0E0,0E0,0E0,1.9446629E4,1.1760953E4,0E0,0E0,2.0692646E3,1.8562544E3,0E0,0E0,0E0,2.1154602E2,1.910686E2,0E0,0E0,0E0,0E0,0E0],"parents":[2147483647,0,0,1,1,2,2,3,3,4,4,5,5,6,6,11,11,12,12,15,15,16,16,20,20,21,21],"right_children":[2,4,6,8,10,12,14,-1,-1,-1,-1,16,18,-1,-1,20,22,-1,-1,-1,24,26,-1,-1,-1,-1,-1],"split_conditions":[9.3115944E-1,3.6318E2,9.6086955E-1,3.5574E2,3.7133E2,9.46558E-1,9.8073673E-1,3.8571323E1,2.7234577E1,2.0051895E1,9.247381E0,6.7794E2,6.898E2,-1.8618465E1,-2.5139555E1,9.3496376E-1,6.8047E2,-5.0396686E0,-9.765071E0,3.139911E0,9.377415E-1,6.7925E2,-2.5519283E0,1.4759874E0,5.0643104E-1,-2.7088317E-1,-1.0775951E0],"split_indices":[6,5,6,5,5,6,6,0,0,0,0,5,5,0,0,6,5,0,0,0,6,5,0,0,0,0,0],"split_type":[0,0,0,0,0,0,0,0,0,0,0,0,0,0,0,0,0,0,0,0,0,0,0,0,0,0,0],"sum_hessian":[2.36E2,7.2E1,1.64E2,3.7E1,3.5E1,8.1E1,8.3E1,1.3E1,2.4E1,2.5E1,1E1,5.2E1,2.9E1,5.3E1,3E1,2.4E1,2.8E1,1.7E1,1.2E1,1.1E1,1.3E1,1.6E1,1.2E1,8E0,5E0,5E0,1.1E1],"tree_param":{"num_deleted":"0","num_feature":"37","num_nodes":"27","size_leaf_vector":"1"}},{"base_weights":[1.0756107E1,2.3485428E2,-1.0987111E2,2.7294867E2,1.0575955E2,-1.2781263E1,-1.8121439E2,3.3123062E1,2.2560095E1,1.1765281E1,6.5165515E0,9.701998E0,-4.3351925E1,-1.5763385E2,-2.2390703E1,2.7726536E1,-4.825989E0,-2.6154728E0,-5.99093E0,-9.620462E0,-1.6625006E1,4.051992E0,1.9689087E0,4.4486847E0,-9.161701E0,6.055542E-1,-2.4792481E-2,-4.8774514E-1,-1.0665683E0],"categories":[],"categories_nodes":[],"categories_segments":[],"categories_sizes":[],"default_left":[0,0,0,0,0,0,0,0,0,0,0,0,0,0,0,0,0,0,0,0,0,0,0,0,0,0,0,0,0],"id":12,"left_children":[1,3,5,7,9,11,13,-1,-1,-1,-1,15,17,19,-1,21,23,-1,-1,-1,-1,-1,-1,25,27,-1,-1,-1,-1],"loss_changes":[6.56763E6,3.891445E5,1.092104E6,1.046425E5,2.4717969E3,4.7158914E4,5.63155E4,0E0,0E0,0E0,0E0,1.0608217E4,6.6905625E3,1.682175E4,0E0,1.0530703E3,9.656408E2,0E0,0E0,0E0,0E0,0E0,0E0,6.1875565E1,5.107361E1,0E0,0E0,0E0,0E0],"parents":[2147483647,0,0,1,1,2,2,3,3,4,4,5,5,6,6,11,11,12,12,13,13,15,15,16,16,23,23,24,24],"right_children":[2,4,6,8,10,12,14,-1,-1,-1,-1,16,18,20,-1,22,24,-1,-1,-1,-1,-1,-1,26,28,-1,-1,-1,-1],"split_conditions":[9.30314E-1,3.6669E2,9.568841E-1,3.5806E2,3.7356E2,9.4263285E-1,9.801329E-1,3.3123062E1,2.2560095E1,1.1765281E1,6.5165515E0,9.377415E-1,6.8426E2,9.66244E-1,-2.2390703E1,6.7414E2,6.7894E2,-2.6154728E0,-5.99093E0,-9.620462E0,-1.6625006E1,4.051992E0,1.9689087E0,9.815E2,6.7938E2,6.055542E-1,-2.4792481E-2,-4.8774514E-1,-1.0665683E0],"split_indices":[6,5,6,5,5,6,6,0,0,0,0,6,5,6,0,5,5,0,0,0,0,0,0,8,5,0,0,0,0],"split_type":[0,0,0,0,0,0,0,0,0,0,0,0,0,0,0,0,0,0,0,0,0,0,0,0,0,0,0,0,0],"sum_hessian":[2.41E2,8.4E1,1.57E2,6.4E1,2E1,6.7E1,9E1,2.6E1,3.8E1,1.4E1,6E0,3.9E1,2.8E1,6.1E1,2.9E1,1.7E1,2.2E1,1.5E1,1.3E1,9E0,5.2E1,5E0,1.2E1,7E0,1.5E1,5E0,2E0,5E0,1E1],"tree_param":{"num_deleted":"0","num_feature":"37","num_nodes":"29","size_leaf_vector":"1"}},{"base_weights":[-1.4211371E0,2.0620094E2,-1.0022067E2,2.3843138E2,9.1871574E1,-1.2108695E1,-1.6277344E2,2.8800684E1,2.0084606E1,1.1134516E1,6.321084E0,5.4411883E0,-4.0260036E1,-1.4385258E2,-2.1739473E1,1.8125605E1,-6.928305E0,-2.2325552E0,-4.798697E0,-9.787246E0,-1.5466292E1,2.0924766E0,9.1381484E-1,1.0187204E0,-9.793062E0,2.4470825E-1,-1.7014568E-1,-4.610718E-1,-1.1032959E0],"categories":[],"categories_nodes":[],"categories_segments":[],"categories_sizes":[],"default_left":[0,0,0,0,0,0,0,0,0,0,0,0,0,0,0,0,0,0,0,0,0,0,0,0,0,0,0,0,0],"id":13,"left_children":[1,3,5,7,9,11,13,-1,-1,-1,-1,15,17,19,-1,21,23,-1,-1,-1,-1,-1,-1,25,27,-1,-1,-1,-1],"loss_changes":[5.0258285E6,2.6920075E5,9.129626E5,5.581675E4,3.5661875E3,3.4802754E4,6.8975E4,0E0,0E0,0E0,0E0,7.029171E3,2.6702852E3,2.214225E4,0E0,3.6224805E2,5.336012E2,0E0,0E0,0E0,0E0,0E0,0E0,3.1361393E1,5.8364746E1,0E0,0E0,0E0,0E0],"parents":[2147483647,0,0,1,1,2,2,3,3,4,4,5,5,6,6,11,11,12,12,13,13,15,15,16,16,23,23,24,24],"right_children":[2,4,6,8,10,12,14,-1,-1,-1,-1,16,18,20,-1,22,24,-1,-1,-1,-1,-1,-1,26,28,-1,-1,-1,-1],"split_conditions":[9.3115944E-1,3.6863E2,9.5652175E-1,3.5887E2,3.7185E2,6.8112E2,9.813406E-1,2.8800684E1,2.0084606E1,1.1134516E1,6.321084E0,9.379227E-1,6.8409E2,9.7469807E-1,-2.1739473E1,6.7589E2,6.7907E2,-2.2325552E0,-4.798697E0,-9.787246E0,-1.5466292E1,2.0924766E0,9.1381484E-1,6.7851E2,6.7938E2,2.4470825E-1,-1.7014568E-1,-4.610718E-1,-1.1032959E0],"split_indices":[6,5,6,5,5,5,6,0,0,0,0,6,5,6,0,5,5,0,0,0,0,0,0,5,5,0,0,0,0],"split_type":[0,0,0,0,0,0,0,0,0,0,0,0,0,0,0,0,0,0,0,0,0,0,0,0,0,0,0,0,0],"sum_hessian":[2.43E2,7.8E1,1.65E2,6E1,1.8E1,6.9E1,9.6E1,2.3E1,3.7E1,9E0,9E0,4.3E1,2.6E1,7.4E1,2.2E1,2.1E1,2.2E1,9E0,1.7E1,1.6E1,5.8E1,1.5E1,6E0,6E0,1.6E1,4E0,2E0,4E0,1.2E1],"tree_param":{"num_deleted":"0","num_feature":"37","num_nodes":"29","size_leaf_vector":"1"}},{"base_weights":[-1.4539166E1,1.8168542E2,-9.20318E1,2.1439777E2,7.890682E1,-2.0517666E1,-1.5546178E2,2.696763E1,1.7882685E1,9.107135E0,5.2317247E0,3.2740085E0,-4.815208E1,-1.384851E1,-1.9474081E1,1.7091782E1,-7.4809713E0,-3.3765194E1,-6.7960963E0,2.2479393E0,9.456232E0,-2.0263295E0,-1.2011641E1,-2.2872741E0,-3.7781875E0,9.910841E-1,2.6823732E-1,1.682485E-1,-4.5546493E-1,-6.2044525E-1,-1.3031378E0],"categories":[],"categories_nodes":[],"categories_segments":[],"categories_sizes":[],"default_left":[0,0,0,0,0,0,0,0,0,0,0,0,0,0,0,0,0,0,0,0,0,0,0,0,0,0,0,0,0,0,0],"id":14,"left_children":[1,3,5,7,9,11,13,-1,-1,-1,-1,15,17,-1,-1,19,21,23,-1,-1,25,27,29,-1,-1,-1,-1,-1,-1,-1,-1],"loss_changes":[3.6509455E6,2.1170725E5,7.770264E5,5.20565E4,1.0574844E3,5.407011E4,3.371275E4,0E0,0E0,0E0,0E0,6.815307E3,8.534828E3,0E0,0E0,6.1017725E2,6.182031E2,1.8585938E2,0E0,0E0,4.209961E0,1.2956502E2,2.0527344E0,0E0,0E0,0E0,0E0,0E0,0E0,0E0,0E0],"parents":[2147483647,0,0,1,1,2,2,3,3,4,4,5,5,6,6,11,11,12,12,15,15,16,16,17,17,20,20,21,21,22,22],"right_children":[2,4,6,8,10,12,14,-1,-1,-1,-1,16,18,-1,-1,20,22,24,-1,-1,26,28,30,-1,-1,-1,-1,-1,-1,-1,-1],"split_conditions":[9.3115944E-1,3.6863E2,9.6086955E-1,3.572E2,3.7393E2,6.8239E2,9.822464E-1,2.696763E1,1.7882685E1,9.107135E0,5.2317247E0,9.3816423E-1,6.8871E2,-1.384851E1,-1.9474081E1,6.7506E2,6.7973E2,6.8374E2,-6.7960963E0,2.2479393E0,8.8E1,6.7894E2,6.8029E2,-2.2872741E0,-3.7781875E0,9.910841E-1,2.6823732E-1,1.682485E-1,-4.5546493E-1,-6.2044525E-1,-1.3031378E0],"split_indices":[6,5,6,5,5,5,6,0,0,0,0,6,5,0,0,5,5,5,0,0,17,5,5,0,0,0,0,0,0,0,0],"split_type":[0,0,0,0,0,0,0,0,0,0,0,0,0,0,0,0,0,0,0,0,0,0,0,0,0,0,0,0,0,0,0],"sum_hessian":[2.38E2,6.7E1,1.71E2,5E1,1.7E1,8.1E1,9E1,1.7E1,3.3E1,1E1,7E0,4.4E1,3.7E1,6.6E1,2.4E1,1.9E1,2.5E1,2.3E1,1.4E1,1E1,9E0,1.2E1,1.3E1,8E0,1.5E1,8E0,1E0,5E0,7E0,3E0,1E1],"tree_param":{"num_deleted":"0","num_feature":"37","num_nodes":"31","size_leaf_vector":"1"}},{"base_weights":[-7.798145E-1,1.8259833E2,-8.402646E1,2.2939276E2,1.2079922E2,-9.018704E0,-1.3242522E2,2.7650217E1,1.9157957E1,1.3550447E1,7.1956153E0,1.5335203E1,-2.7863153E1,-8.836234E0,-1.4690842E2,3.592861E0,9.547885E0,-1.5562122E1,-4.1419535E0,-1.3330962E1,-1.8105421E1,1.3923048E0,2.0303528E0,-8.5900134E-1,-1.9191881E0,4.6502993E-1,-1.5196534E-1],"categories":[],"categories_nodes":[],"categories_segments":[],"categories_sizes":[],"default_left":[0,0,0,0,0,0,0,0,0,0,0,0,0,0,0,0,0,0,0,0,0,0,0,0,0,0,0],"id":15,"left_children":[1,3,5,7,9,11,13,-1,-1,-1,-1,15,17,-1,19,-1,21,23,-1,-1,-1,-1,25,-1,-1,-1,-1],"loss_changes":[3.6180285E6,1.8628675E5,5.9054175E5,2.00635E4,1.4670125E4,3.0258125E4,5.019775E4,0E0,0E0,0E0,0E0,3.1131948E3,5.525453E3,0E0,9.760625E3,0E0,7.6110156E2,3.6658984E2,0E0,0E0,0E0,0E0,1.000751E2,0E0,0E0,0E0,0E0],"parents":[2147483647,0,0,1,1,2,2,3,3,4,4,5,5,6,6,11,11,12,12,14,14,16,16,17,17,22,22],"right_children":[2,4,6,8,10,12,14,-1,-1,-1,-1,16,18,-1,20,-1,22,24,-1,-1,-1,-1,26,-1,-1,-1,-1],"split_conditions":[9.2300725E-1,3.623E2,9.5682365E-1,3.5476E2,3.7113E2,6.7925E2,9.759058E-1,2.7650217E1,1.9157957E1,1.3550447E1,7.1956153E0,9.3278986E-1,6.8374E2,-8.836234E0,3.5465E2,3.592861E0,9.3719804E-1,6.8095E2,-4.1419535E0,-1.3330962E1,-1.8105421E1,1.3923048E0,6.7794E2,-8.5900134E-1,-1.9191881E0,4.6502993E-1,-1.5196534E-1],"split_indices":[6,5,6,5,5,5,6,0,0,0,0,6,5,0,5,0,6,5,0,0,0,0,5,0,0,0,0],"split_type":[0,0,0,0,0,0,0,0,0,0,0,0,0,0,0,0,0,0,0,0,0,0,0,0,0,0,0],"sum_hessian":[2.35E2,7.3E1,1.62E2,4E1,3.3E1,6.4E1,9.8E1,1.5E1,2.5E1,2.4E1,9E0,2.8E1,3.6E1,2.6E1,7.2E1,5E0,2.3E1,2E1,1.6E1,5.5E1,1.7E1,1.4E1,9E0,8E0,1.2E1,5E0,4E0],"tree_param":{"num_deleted":"0","num_feature":"37","num_nodes":"27","size_leaf_vector":"1"}},{"base_weights":[-1.0768092E0,1.526138E2,-7.546796E1,2.0509964E2,1.0024907E2,-1.9786648E1,-1.27467865E2,2.4961264E1,1.705879E1,1.209651E1,5.313608E0,-2.6861303E0,-5.3226658E1,-1.1337147E1,-1.601186E1,1.0946234E1,-1.2274061E1,-3.2935112E0,-6.203188E0,1.3627739E1,3.2533307E0,-7.4095664E0,-2.0445E0,1.463517E0,6.9466555E-1,4.988434E-1,7.04895E-2,-4.0828633E-1,-1.0062672E0],"categories":[],"categories_nodes":[],"categories_segments":[],"categories_sizes":[],"default_left":[0,0,0,0,0,0,0,0,0,0,0,0,0,0,0,0,0,0,0,0,0,0,0,0,0,0,0,0,0],"id":16,"left_children":[1,3,5,7,9,11,13,-1,-1,-1,-1,15,17,-1,-1,19,21,-1,-1,23,25,27,-1,-1,-1,-1,-1,-1,-1],"loss_changes":[2.6640245E6,1.8831788E5,4.520592E5,1.425925E4,3.2612156E4,4.3888816E4,1.9128E4,0E0,0E0,0E0,0E0,6.931076E3,2.6024297E3,0E0,0E0,4.0949268E2,1.0806836E3,0E0,0E0,6.026367E0,2.7436272E1,1.4426355E2,0E0,0E0,0E0,0E0,0E0,0E0,0E0],"parents":[2147483647,0,0,1,1,2,2,3,3,4,4,5,5,6,6,11,11,12,12,15,15,16,16,19,19,20,20,21,21],"right_children":[2,4,6,8,10,12,14,-1,-1,-1,-1,16,18,-1,-1,20,22,-1,-1,24,26,28,-1,-1,-1,-1,-1,-1,-1],"split_conditions":[9.3278986E-1,8.9172703E-1,9.6497583E-1,8.740942E-1,9.1455317E-1,9.477053E-1,9.825483E-1,2.4961264E1,1.705879E1,1.209651E1,5.313608E0,9.396135E-1,9.552536E-1,-1.1337147E1,-1.601186E1,9.3719804E-1,9.449275E-1,-3.2935112E0,-6.203188E0,9.3599033E-1,9.3816423E-1,9.4172704E-1,-2.0445E0,1.463517E0,6.9466555E-1,4.988434E-1,7.04895E-2,-4.0828633E-1,-1.0062672E0],"split_indices":[6,6,6,6,6,6,6,0,0,0,0,6,6,0,0,6,6,0,0,6,6,6,0,0,0,0,0,0,0],"split_type":[0,0,0,0,0,0,0,0,0,0,0,0,0,0,0,0,0,0,0,0,0,0,0,0,0,0,0,0,0],"sum_hessian":[2.31E2,7.5E1,1.56E2,3.6E1,3.9E1,7.6E1,8E1,1.3E1,2.3E1,2.6E1,1.3E1,5.1E1,2.5E1,5.9E1,2.1E1,2.1E1,3E1,9E0,1.6E1,1.5E1,6E0,2E1,1E1,1.2E1,3E0,3E0,3E0,1E1,1E1],"tree_param":{"num_deleted":"0","num_feature":"37","num_nodes":"29","size_leaf_vector":"1"}},{"base_weights":[-9.326008E-1,1.3665565E2,-6.62812E1,1.769043E2,8.702094E1,-7.979311E0,-1.1040044E2,2.2934734E1,1.57240925E1,1.0311477E1,4.62404E0,4.1034813E0,-2.9892475E1,-8.9331154E1,-1.290697E1,1.26009035E1,-4.941807E0,-2.0370946E0,-3.8509889E0,-5.5971603E0,-9.38836E0,1.8466552E0,9.099369E0,1.8116944E0,-6.458949E0,9.912798E-1,3.9775237E-1,3.2251588E-1,6.520386E-2,-4.0050885E-1,-8.740452E-1],"categories":[],"categories_nodes":[],"categories_segments":[],"categories_sizes":[],"default_left":[0,0,0,0,0,0,0,0,0,0,0,0,0,0,0,0,0,0,0,0,0,0,0,0,0,0,0,0,0,0,0],"id":17,"left_children":[1,3,5,7,9,11,13,-1,-1,-1,-1,15,17,19,-1,21,23,-1,-1,-1,-1,-1,25,27,29,-1,-1,-1,-1,-1,-1],"loss_changes":[2.1219895E6,1.3643312E5,4.1067662E5,6.21675E3,1.8859281E4,1.8656719E4,2.426475E4,0E0,0E0,0E0,0E0,3.5979067E3,1.266793E3,1.7310625E3,0E0,3.2489673E2,2.473601E2,0E0,0E0,0E0,0E0,0E0,3.1398193E1,6.0927315E0,7.136505E1,0E0,0E0,0E0,0E0,0E0,0E0],"parents":[2147483647,0,0,1,1,2,2,3,3,4,4,5,5,6,6,11,11,12,12,13,13,15,15,16,16,22,22,23,23,24,24],"right_children":[2,4,6,8,10,12,14,-1,-1,-1,-1,16,18,20,-1,22,24,-1,-1,-1,-1,-1,26,28,30,-1,-1,-1,-1,-1,-1],"split_conditions":[9.3140095E-1,3.6318E2,9.58756E-1,3.5432E2,3.718E2,6.8317E2,9.785024E-1,2.2934734E1,1.57240925E1,1.0311477E1,4.62404E0,9.3816423E-1,6.8548E2,9.6497583E-1,-1.290697E1,6.7462E2,6.7851E2,-2.0370946E0,-3.8509889E0,-5.5971603E0,-9.38836E0,1.8466552E0,6.7698E2,9.005E2,6.8008E2,9.912798E-1,3.9775237E-1,3.2251588E-1,6.520386E-2,-4.0050885E-1,-8.740452E-1],"split_indices":[6,5,6,5,5,5,6,0,0,0,0,6,5,6,0,5,5,0,0,0,0,0,5,8,5,0,0,0,0,0,0],"split_type":[0,0,0,0,0,0,0,0,0,0,0,0,0,0,0,0,0,0,0,0,0,0,0,0,0,0,0,0,0,0,0],"sum_hessian":[2.34E2,7.5E1,1.59E2,4E1,3.5E1,6.9E1,9E1,8E0,3.2E1,2.4E1,1.1E1,4.5E1,2.4E1,4.5E1,4.5E1,2.3E1,2.2E1,1.3E1,1.1E1,7E0,3.8E1,7E0,1.6E1,4E0,1.8E1,1.3E1,3E0,1E0,3E0,1E1,8E0],"tree_param":{"num_deleted":"0","num_feature":"37","num_nodes":"31","size_leaf_vector":"1"}},{"base_weights":[2.7629383E0,1.2633368E2,-5.791581E1,1.5178401E2,7.546469E1,-4.0078564E0,-9.759527E1,1.8861881E1,1.322803E1,8.303659E0,3.9804914E0,1.2248544E1,-1.5524145E1,-6.7911277E0,-1.13027145E2,2.482436E0,8.070241E0,-6.67051E0,-2.4060137E0,-9.932029E0,-1.4025352E1,1.049852E1,2.8566082E0,-3.7286022E0,-9.273454E-1,3.0669555E-1,1.0789493E0,1.3000488E-2,4.198242E-1,-1.0930481E-1,-3.86883E-1],"categories":[],"categories_nodes":[],"categories_segments":[],"categories_sizes":[],"default_left":[0,0,0,0,0,0,0,0,0,0,0,0,0,0,0,0,0,0,0,0,0,0,0,0,0,0,0,0,0,0,0],"id":18,"left_children":[1,3,5,7,9,11,13,-1,-1,-1,-1,15,17,-1,19,-1,21,23,-1,-1,-1,25,27,29,-1,-1,-1,-1,-1,-1,-1],"loss_changes":[1.8443556E6,9.3410875E4,3.5255012E5,1.3125375E4,4.5250938E3,1.3482299E4,3.584175E4,0E0,0E0,0E0,0E0,1.3760283E3,3.0136387E3,0E0,8.8345E3,0E0,2.738534E2,1.3389069E2,0E0,0E0,0E0,1.5073242E0,3.2377144E1,2.0613098E-1,0E0,0E0,0E0,0E0,0E0,0E0,0E0],"parents":[2147483647,0,0,1,1,2,2,3,3,4,4,5,5,6,6,11,11,12,12,14,14,16,16,17,17,21,21,22,22,23,23],"right_children":[2,4,6,8,10,12,14,-1,-1,-1,-1,16,18,-1,20,-1,22,24,-1,-1,-1,26,28,30,-1,-1,-1,-1,-1,-1,-1],"split_conditions":[9.2300725E-1,3.6439E2,9.559783E-1,3.5598E2,3.7285E2,6.7894E2,9.7657007E-1,1.8861881E1,1.322803E1,8.303659E0,3.9804914E0,9.3357486E-1,6.8317E2,-6.7911277E0,3.5465E2,2.482436E0,9.3719804E-1,6.8029E2,-2.4060137E0,-9.932029E0,-1.4025352E1,1.7E1,2.7E1,6.7907E2,-9.273454E-1,3.0669555E-1,1.0789493E0,1.3000488E-2,4.198242E-1,-1.0930481E-1,-3.86883E-1],"split_indices":[6,5,6,5,5,5,6,0,0,0,0,6,5,0,5,0,6,5,0,0,0,11,13,5,0,0,0,0,0,0,0],"split_type":[0,0,0,0,0,0,0,0,0,0,0,0,0,0,0,0,0,0,0,0,0,0,0,0,0,0,0,0,0,0,0],"sum_hessian":[2.44E2,8E1,1.64E2,5.2E1,2.8E1,7E1,9.4E1,1.5E1,3.7E1,2.2E1,6E0,2.9E1,4.1E1,3.4E1,6E1,6E0,2.3E1,2.1E1,2E1,4.3E1,1.7E1,1.5E1,8E0,1.1E1,1E1,1E0,1.4E1,3E0,5E0,1E0,1E1],"tree_param":{"num_deleted":"0","num_feature":"37","num_nodes":"31","size_leaf_vector":"1"}},{"base_weights":[5.379258E0,1.2623796E2,-4.965452E1,1.6075523E2,9.115354E1,-3.4720109E0,-8.6364555E1,2.0181284E1,1.3807416E1,1.0299629E1,5.493743E0,1.2875492E1,-1.5937024E1,-6.3042652E1,-9.998817E1,2.5818062E0,7.7011476E0,-8.694198E0,-2.5513496E0,-4.5597434E0,-6.959246E0,-8.989667E0,-1.2722889E1,9.434727E-1,2.8379517E0,-4.4222007E0,-1.1532182E0,3.6400452E-1,2.8778076E-2,-2.5165772E-1,-5.0604403E-1],"categories":[],"categories_nodes":[],"categories_segments":[],"categories_sizes":[],"default_left":[0,0,0,0,0,0,0,0,0,0,0,0,0,0,0,0,0,0,0,0,0,0,0,0,0,0,0,0,0,0,0],"id":19,"left_children":[1,3,5,7,9,11,13,-1,-1,-1,-1,15,17,19,21,-1,23,25,-1,-1,-1,-1,-1,-1,27,29,-1,-1,-1,-1,-1],"loss_changes":[1.6158855E6,7.7384E4,2.8282556E5,6.590375E3,1.1497594E4,1.5488085E4,2.3245312E4,0E0,0E0,0E0,0E0,2.0111587E3,2.7606924E3,1.0544844E3,4.2318125E3,0E0,1.8399292E2,2.6422278E2,0E0,0E0,0E0,0E0,0E0,0E0,1.5316269E1,1.8599396E0,0E0,0E0,0E0,0E0,0E0],"parents":[2147483647,0,0,1,1,2,2,3,3,4,4,5,5,6,6,11,11,12,12,13,13,14,14,16,16,17,17,24,24,25,25],"right_children":[2,4,6,8,10,12,14,-1,-1,-1,-1,16,18,20,22,-1,24,26,-1,-1,-1,-1,-1,-1,28,30,-1,-1,-1,-1,-1],"split_conditions":[9.1944444E-1,8.8544685E-1,9.562198E-1,8.7173915E-1,9.073068E-1,9.402174E-1,9.7693235E-1,2.0181284E1,1.3807416E1,1.0299629E1,5.493743E0,9.3357486E-1,9.468599E-1,9.66244E-1,9.835145E-1,2.5818062E0,9.377415E-1,9.4221014E-1,-2.5513496E0,-4.5597434E0,-6.959246E0,-8.989667E0,-1.2722889E1,9.434727E-1,7E0,9.4082123E-1,-1.1532182E0,3.6400452E-1,2.8778076E-2,-2.5165772E-1,-5.0604403E-1],"split_indices":[6,6,6,6,6,6,6,0,0,0,0,6,6,6,6,0,6,6,0,0,0,0,0,0,1,6,0,0,0,0,0],"split_type":[0,0,0,0,0,0,0,0,0,0,0,0,0,0,0,0,0,0,0,0,0,0,0,0,0,0,0,0,0,0,0],"sum_hessian":[2.41E2,7.5E1,1.66E2,3.6E1,3.9E1,7.4E1,9.2E1,1E1,2.6E1,2.8E1,1.1E1,3.2E1,4.2E1,3.6E1,5.6E1,8E0,2.4E1,2.5E1,1.7E1,1.2E1,2.4E1,4.4E1,1.2E1,1.7E1,7E0,1.1E1,1.4E1,5E0,2E0,4E0,7E0],"tree_param":{"num_deleted":"0","num_feature":"37","num_nodes":"31","size_leaf_vector":"1"}},{"base_weights":[1.3631034E0,1.0958128E2,-4.795147E1,1.4753737E1,8.22149E1,-9.331598E0,-8.511563E1,9.46344E0,4.941101E0,3.8435898E0,-2.6171528E1,-7.6182337E0,-1.1078641E1,1.1398907E1,-4.1866813E0,-1.5945386E0,-3.6079938E0,1.9859695E0,7.005283E0,-4.981018E-1,-6.366622E0,7.2778535E-1,1.18579105E-1,1.4293213E-1,-2.0212708E-1,-3.7852377E-1,-7.2787905E-1],"categories":[],"categories_nodes":[],"categories_segments":[],"categories_sizes":[],"default_left":[0,0,0,0,0,0,0,0,0,0,0,0,0,0,0,0,0,0,0,0,0,0,0,0,0,0,0],"id":20,"left_children":[1,3,5,-1,7,9,11,-1,-1,13,15,-1,-1,17,19,-1,-1,-1,21,23,25,-1,-1,-1,-1,-1,-1],"loss_changes":[1.3127542E6,6.785175E4,2.4176725E5,0E0,1.44721875E4,1.873761E4,1.12819375E4,0E0,0E0,2.9599429E3,3.173707E3,0E0,0E0,7.9021533E2,1.8981003E2,0E0,0E0,0E0,1.9921997E1,3.2246956E1,7.7678833E0,0E0,0E0,0E0,0E0,0E0,0E0],"parents":[2147483647,0,0,1,1,2,2,4,4,5,5,6,6,9,9,10,10,13,13,14,14,18,18,19,19,20,20],"right_children":[2,4,6,-1,8,10,12,-1,-1,14,16,-1,-1,18,20,-1,-1,-1,22,24,26,-1,-1,-1,-1,-1,-1],"split_conditions":[9.2300725E-1,8.8508457E-1,9.6497583E-1,1.4753737E1,9.073068E-1,9.449879E-1,9.825483E-1,9.46344E0,4.941101E0,9.3816423E-1,9.504831E-1,-7.6182337E0,-1.1078641E1,9.3411833E-1,9.413043E-1,-1.5945386E0,-3.6079938E0,1.9859695E0,9.4E1,9.396135E-1,9.420894E-1,7.2778535E-1,1.18579105E-1,1.4293213E-1,-2.0212708E-1,-3.7852377E-1,-7.2787905E-1],"split_indices":[6,6,6,0,6,6,6,0,0,6,6,0,0,6,6,0,0,0,17,6,6,0,0,0,0,0,0],"split_type":[0,0,0,0,0,0,0,0,0,0,0,0,0,0,0,0,0,0,0,0,0,0,0,0,0,0,0],"sum_hessian":[2.44E2,7.6E1,1.68E2,3E1,4.6E1,8.3E1,8.5E1,3.2E1,1.4E1,4.7E1,3.6E1,6.6E1,1.9E1,2.4E1,2.3E1,1.9E1,1.7E1,7E0,1.7E1,9E0,1.4E1,1.6E1,1E0,4E0,5E0,5E0,9E0],"tree_param":{"num_deleted":"0","num_feature":"37","num_nodes":"27","size_leaf_vector":"1"}},{"base_weights":[7.940907E-3,9.909926E1,-4.152739E1,1.3728221E2,7.341656E1,-1.7267185E0,-6.953269E1,1.7291916E1,1.1317617E1,8.625766E0,4.283991E0,9.442232E0,-1.0846711E1,-5.236578E1,-8.371177E1,1.9614991E0,5.8092604E0,-5.8033395E0,-1.7032055E0,-4.005633E0,-6.000033E0,-7.592178E0,-1.0584523E1,8.5669756E-1,3.030557E0,-2.8810627E0,-7.169816E-1,3.7540728E-1,2.832489E-2,-1.19104005E-1,-3.1937778E-1],"categories":[],"categories_nodes":[],"categories_segments":[],"categories_sizes":[],"default_left":[0,0,0,0,0,0,0,0,0,0,0,0,0,0,0,0,0,0,0,0,0,0,0,0,0,0,0,0,0,0,0],"id":21,"left_children":[1,3,5,7,9,11,13,-1,-1,-1,-1,15,17,19,21,-1,23,25,-1,-1,-1,-1,-1,-1,27,29,-1,-1,-1,-1,-1],"loss_changes":[9.754419E5,5.8566125E4,1.860231E5,3.6244688E3,1.35808125E4,7.232669E3,1.9470656E4,0E0,0E0,0E0,0E0,1.0686865E3,1.1177622E3,2.0135156E3,9.2984375E2,0E0,1.6560901E2,7.118738E1,0E0,0E0,0E0,0E0,0E0,0E0,2.6764755E1,9.5254517E-1,0E0,0E0,0E0,0E0,0E0],"parents":[2147483647,0,0,1,1,2,2,3,3,4,4,5,5,6,6,11,11,12,12,13,13,14,14,16,16,17,17,24,24,25,25],"right_children":[2,4,6,8,10,12,14,-1,-1,-1,-1,16,18,20,22,-1,24,26,-1,-1,-1,-1,-1,-1,28,30,-1,-1,-1,-1,-1],"split_conditions":[9.2300725E-1,8.833333E-1,9.552536E-1,8.711957E-1,9.073068E-1,9.402174E-1,9.777174E-1,1.7291916E1,1.1317617E1,8.625766E0,4.283991E0,9.3357486E-1,9.463768E-1,9.7445655E-1,9.839976E-1,1.9614991E0,9.3599033E-1,9.420894E-1,-1.7032055E0,-4.005633E0,-6.000033E0,-7.592178E0,-1.0584523E1,8.5669756E-1,9.3858695E-1,2.2E1,-7.169816E-1,3.7540728E-1,2.832489E-2,-1.19104005E-1,-3.1937778E-1],"split_indices":[6,6,6,6,6,6,6,0,0,0,0,6,6,6,6,0,6,6,0,0,0,0,0,0,6,24,0,0,0,0,0],"split_type":[0,0,0,0,0,0,0,0,0,0,0,0,0,0,0,0,0,0,0,0,0,0,0,0,0,0,0,0,0,0,0],"sum_hessian":[2.35E2,6.9E1,1.66E2,2.6E1,4.3E1,6.9E1,9.7E1,8E0,1.8E1,2.9E1,1.4E1,3.1E1,3.8E1,4.6E1,5.1E1,7E0,2.4E1,2.2E1,1.6E1,2E1,2.6E1,4.1E1,1E1,1.1E1,1.3E1,8E0,1.4E1,1E1,3E0,2E0,6E0],"tree_param":{"num_deleted":"0","num_feature":"37","num_nodes":"31","size_leaf_vector":"1"}},{"base_weights":[3.523375E0,-3.9267883E1,8.600743E1,-6.805548E1,-8.909905E0,1.1211473E2,5.5892097E1,-5.9850054E0,-8.57334E0,3.0522928E0,-2.2211605E1,1.6369629E1,9.793183E0,6.411835E1,2.7627943E0,7.7425914E0,-3.8921542E0,-1.4338443E0,-3.109384E0,6.9739456E0,4.5340066E0,1.0878987E1,4.7173014E0,-1.3828822E0,-5.03155E-1,1.5992026E-1,1.2575024E0,4.9201313E-1,9.388428E-2,1.5993245E-2,-2.0319946E-1],"categories":[],"categories_nodes":[],"categories_segments":[],"categories_sizes":[],"default_left":[0,0,0,0,0,0,0,0,0,0,0,0,0,0,0,0,0,0,0,0,0,0,0,0,0,0,0,0,0,0,0],"id":22,"left_children":[1,3,5,7,9,11,13,-1,-1,15,17,-1,-1,19,-1,21,23,-1,-1,-1,-1,25,27,29,-1,-1,-1,-1,-1,-1,-1],"loss_changes":[8.681285E5,1.4097078E5,5.9777E4,6.9084375E3,1.2797202E4,1.615825E4,7.7613594E3,0E0,0E0,1.4307112E3,2.2115508E3,0E0,0E0,1.1021094E2,0E0,1.9538171E2,4.4504913E1,0E0,0E0,0E0,0E0,1.6875623E2,6.8765564E0,7.3352013E0,0E0,0E0,0E0,0E0,0E0,0E0,0E0],"parents":[2147483647,0,0,1,1,2,2,3,3,4,4,5,5,6,6,9,9,10,10,13,13,15,15,16,16,21,21,22,22,23,23],"right_children":[2,4,6,8,10,12,14,-1,-1,16,18,-1,-1,20,-1,22,24,-1,-1,-1,-1,26,28,30,-1,-1,-1,-1,-1,-1,-1],"split_conditions":[1.196E3,3.5645E2,3.623E2,3.5382E2,6.833E2,3.5377E2,3.7285E2,-5.9850054E0,-8.57334E0,6.7794E2,6.8871E2,1.6369629E1,9.793183E0,3.6863E2,2.7627943E0,6.7502E2,6.796E2,-1.4338443E0,-3.109384E0,6.9739456E0,4.5340066E0,6.7179E2,8.8E1,6.7894E2,-5.03155E-1,1.5992026E-1,1.2575024E0,4.9201313E-1,9.388428E-2,1.5993245E-2,-2.0319946E-1],"split_indices":[7,5,5,5,5,5,5,0,0,5,5,0,0,5,0,5,5,0,0,0,0,5,17,5,0,0,0,0,0,0,0],"split_type":[0,0,0,0,0,0,0,0,0,0,0,0,0,0,0,0,0,0,0,0,0,0,0,0,0,0,0,0,0,0,0],"sum_hessian":[2.44E2,1.61E2,8.3E1,8.2E1,7.9E1,4.3E1,4E1,5.9E1,2.3E1,4.2E1,3.7E1,7E0,3.6E1,3E1,1E1,2.5E1,1.7E1,2.1E1,1.6E1,2.1E1,9E0,1.1E1,1.4E1,6E0,1.1E1,2E0,9E0,1.3E1,1E0,2E0,4E0],"tree_param":{"num_deleted":"0","num_feature":"37","num_nodes":"31","size_leaf_vector":"1"}},{"base_weights":[-4.263519E-1,7.7650375E1,-3.7138466E1,9.171751E1,4.1591656E1,-1.0675323E1,-6.2853355E1,1.3063281E1,8.148622E0,4.790859E0,2.2969208E0,-2.1917715E0,-2.7564148E1,-5.781444E1,-9.149565E0,4.8904953E0,-7.1265545E0,-3.079294E0,-1.5643052E0,-3.3936594E0,-5.9398947E0,6.765484E-1,2.4517162E0,-2.9524863E0,-9.900778E0,-1.9897462E-3,2.9480287E-1,-1.7108329E-1,-3.5901627E-1,-5.5306154E-1,-1.0647656E0],"categories":[],"categories_nodes":[],"categories_segments":[],"categories_sizes":[],"default_left":[0,0,0,0,0,0,0,0,0,0,0,0,0,0,0,0,0,0,0,0,0,0,0,0,0,0,0,0,0,0,0],"id":23,"left_children":[1,3,5,7,9,11,13,-1,-1,-1,-1,15,17,19,-1,21,23,-1,-1,-1,-1,-1,25,27,29,-1,-1,-1,-1,-1,-1],"loss_changes":[7.080089E5,3.625747E4,1.13652484E5,1.1651875E4,1.7228633E3,1.1974873E4,6.9779375E3,0E0,0E0,0E0,0E0,2.0269712E3,5.960449E2,8.2178125E2,0E0,9.315735E1,3.6448132E2,0E0,0E0,0E0,0E0,0E0,1.4778969E1,5.734436E0,6.3913574E0,0E0,0E0,0E0,0E0,0E0,0E0],"parents":[2147483647,0,0,1,1,2,2,3,3,4,4,5,5,6,6,11,11,12,12,13,13,15,15,16,16,22,22,23,23,24,24],"right_children":[2,4,6,8,10,12,14,-1,-1,-1,-1,16,18,20,-1,22,24,-1,-1,-1,-1,-1,26,28,30,-1,-1,-1,-1,-1,-1],"split_conditions":[9.3115944E-1,3.6453E2,9.66244E-1,3.5432E2,3.7337E2,6.8513E2,9.842391E-1,1.3063281E1,8.148622E0,4.790859E0,2.2969208E0,6.7851E2,2.9E1,3.5179E2,-9.149565E0,9.3599033E-1,6.8095E2,-3.079294E0,-1.5643052E0,-3.3936594E0,-5.9398947E0,6.765484E-1,1.9E1,6.7973E2,6.8234E2,-1.9897462E-3,2.9480287E-1,-1.7108329E-1,-3.5901627E-1,-5.5306154E-1,-1.0647656E0],"split_indices":[6,5,6,5,5,5,6,0,0,0,0,5,15,5,0,6,5,0,0,0,0,0,31,5,5,0,0,0,0,0,0],"split_type":[0,0,0,0,0,0,0,0,0,0,0,0,0,0,0,0,0,0,0,0,0,0,0,0,0,0,0,0,0,0,0],"sum_hessian":[2.45E2,7.8E1,1.67E2,5.5E1,2.3E1,8.3E1,8.4E1,9E0,4.6E1,1.6E1,7E0,5.6E1,2.7E1,7.4E1,1E1,2.3E1,3.3E1,2E1,7E0,6E0,6.8E1,1.2E1,1.1E1,1.4E1,1.9E1,2E0,9E0,6E0,8E0,4E0,1.5E1],"tree_param":{"num_deleted":"0","num_feature":"37","num_nodes":"31","size_leaf_vector":"1"}},{"base_weights":[2.1062284E0,-3.213712E1,7.0160194E1,-5.5356247E1,-8.535411E0,1.0186025E2,5.1593616E1,-6.9882216E0,-4.801673E1,-5.4914623E-1,-2.086118E1,1.4627861E1,8.7125435E0,6.2596993E0,2.9207855E1,-3.23968E0,-4.9831686E0,5.338796E0,-5.40299E0,-1.4692612E0,-2.8183336E0,3.3457267E0,1.8651581E0,7.030221E0,2.700728E0,-2.737849E0,-6.8795843E0,7.655161E-1,-5.4699708E-2,3.106186E-1,1.21463016E-1,-5.7839967E-2,-2.8815806E-1,-7.138909E-1,-1.2355347E-1],"categories":[],"categories_nodes":[],"categories_segments":[],"categories_sizes":[],"default_left":[0,0,0,0,0,0,0,0,0,0,0,0,0,0,0,0,0,0,0,0,0,0,0,0,0,0,0,0,0,0,0,0,0,0,0],"id":24,"left_children":[1,3,5,7,9,11,13,-1,15,17,19,-1,-1,-1,21,-1,-1,23,25,-1,-1,-1,-1,27,29,31,33,-1,-1,-1,-1,-1,-1,-1,-1],"loss_changes":[5.848537E5,9.1045375E4,4.4183812E4,5.6E3,8.257241E3,6.8903125E3,1.1719234E4,0E0,5.8234375E1,1.5149614E3,1.0764297E3,0E0,0E0,0E0,2.731289E2,0E0,0E0,8.8103455E1,9.528937E1,0E0,0E0,0E0,0E0,7.048163E1,2.8551865E0,2.057869E0,1.7525146E1,0E0,0E0,0E0,0E0,0E0,0E0,0E0,0E0],"parents":[2147483647,0,0,1,1,2,2,3,3,4,4,5,5,6,6,8,8,9,9,10,10,14,14,17,17,18,18,23,23,24,24,25,25,26,26],"right_children":[2,4,6,8,10,12,14,-1,16,18,20,-1,-1,-1,22,-1,-1,24,26,-1,-1,-1,-1,28,30,32,34,-1,-1,-1,-1,-1,-1,-1,-1],"split_conditions":[1.196E3,6.08E2,3.5926E2,3.35E2,6.8409E2,3.5325E2,3.6669E2,-6.9882216E0,3.5186E2,6.7851E2,6.9032E2,1.4627861E1,8.7125435E0,6.2596993E0,3.7393E2,-3.23968E0,-4.9831686E0,6.7554E2,6.8047E2,-1.4692612E0,-2.8183336E0,3.3457267E0,1.8651581E0,1.1675E3,6.7728E2,2E1,9.5E1,7.655161E-1,-5.4699708E-2,3.106186E-1,1.21463016E-1,-5.7839967E-2,-2.8815806E-1,-7.138909E-1,-1.2355347E-1],"split_indices":[7,7,5,7,5,5,5,0,5,5,5,0,0,0,5,0,0,5,5,0,0,0,0,7,5,25,18,0,0,0,0,0,0,0,0],"split_type":[0,0,0,0,0,0,0,0,0,0,0,0,0,0,0,0,0,0,0,0,0,0,0,0,0,0,0,0,0,0,0,0,0,0,0],"sum_hessian":[2.49E2,1.66E2,8.3E1,8.3E1,8.3E1,2.9E1,5.4E1,2.5E1,5.8E1,5.1E1,3.2E1,5E0,2.4E1,3.5E1,1.9E1,8E0,5E1,2.3E1,2.8E1,1.9E1,1.3E1,1.2E1,7E0,1.3E1,1E1,1.1E1,1.7E1,1.2E1,1E0,7E0,3E0,1E0,1E1,1.6E1,1E0],"tree_param":{"num_deleted":"0","num_feature":"37","num_nodes":"35","size_leaf_vector":"1"}},{"base_weights":[-7.587278E-2,-2.9060745E1,6.15638E1,-5.173596E1,-7.8590055E0,7.6486855E1,3.5989826E1,-4.651149E1,-7.7900696E0,-1.2659903E0,-2.194168E1,9.782436E0,6.60643E0,4.229789E0,2.067536E0,-3.8655152E0,-5.1765113E0,4.8276234E0,-5.9306064E0,-1.3956504E0,-2.560253E1,3.9905908E0,1.0193685E0,-2.5884442E0,-7.787864E0,-4.232025E-1,-2.6610675E0,4.6838108E-1,1.9320221E-1,-1.05806485E-1,-2.7553356E-1,-8.0469275E-1,-1.1737671E-1],"categories":[],"categories_nodes":[],"categories_segments":[],"categories_sizes":[],"default_left":[0,0,0,0,0,0,0,0,0,0,0,0,0,0,0,0,0,0,0,0,0,0,0,0,0,0,0,0,0,0,0,0,0],"id":25,"left_children":[1,3,5,7,9,11,13,15,-1,17,19,-1,-1,-1,-1,-1,-1,21,23,-1,25,27,-1,29,31,-1,-1,-1,-1,-1,-1,-1,-1],"loss_changes":[4.4129716E5,8.036008E4,2.7396906E4,7.449172E3,8.1427847E3,4.4345E3,2.1202227E3,8.882031E2,0E0,1.7625172E3,4.611875E2,0E0,0E0,0E0,0E0,0E0,0E0,8.0593506E1,1.9709558E2,0E0,2.7518652E2,2.662677E1,0E0,6.603775E-1,2.8251099E1,0E0,0E0,0E0,0E0,0E0,0E0,0E0,0E0],"parents":[2147483647,0,0,1,1,2,2,3,3,4,4,5,5,6,6,7,7,9,9,10,10,17,17,18,18,20,20,21,21,23,23,24,24],"right_children":[2,4,6,8,10,12,14,16,-1,18,20,-1,-1,-1,-1,-1,-1,22,24,-1,26,28,-1,30,32,-1,-1,-1,-1,-1,-1,-1,-1],"split_conditions":[1.196E3,3.5656E2,3.635E2,3.5513E2,6.8544E2,3.5574E2,3.718E2,3.5286E2,-7.7900696E0,6.7851E2,6.9032E2,9.782436E0,6.60643E0,4.229789E0,2.067536E0,-3.8655152E0,-5.1765113E0,9.1E1,6.8095E2,-1.3956504E0,5.94E2,6.7676E2,1.0193685E0,6.7925E2,9.5E1,-4.232025E-1,-2.6610675E0,4.6838108E-1,1.9320221E-1,-1.05806485E-1,-2.7553356E-1,-8.0469275E-1,-1.1737671E-1],"split_indices":[7,5,5,5,5,5,5,5,0,5,5,0,0,0,0,0,0,16,5,0,7,5,0,5,18,0,0,0,0,0,0,0,0],"split_type":[0,0,0,0,0,0,0,0,0,0,0,0,0,0,0,0,0,0,0,0,0,0,0,0,0,0,0,0,0,0,0,0,0],"sum_hessian":[2.45E2,1.67E2,7.8E1,8E1,8.7E1,4.8E1,3E1,6.9E1,1.1E1,6E1,2.7E1,1.3E1,3.5E1,2E1,1E1,3.1E1,3.8E1,2.6E1,3.4E1,1E1,1.7E1,2.4E1,2E0,1.3E1,2.1E1,1E0,1.6E1,1.7E1,7E0,2E0,1.1E1,2E1,1E0],"tree_param":{"num_deleted":"0","num_feature":"37","num_nodes":"33","size_leaf_vector":"1"}},{"base_weights":[1.4126813E0,6.008304E1,-2.646457E1,9.775971E1,4.7570107E1,-2.785899E0,-4.2636436E1,1.2272273E1,7.505131E0,5.5656724E0,2.6058546E1,2.9963684E0,-1.0266598E1,-3.3238865E1,-5.3703876E1,6.975159E-1,2.6770797E0,6.674914E0,-6.4806825E-1,-6.4328074E0,-1.4490277E0,-1.9665062E0,-3.484209E0,-4.844904E0,-7.305678E0,9.385769E-1,3.850131E-1,1.2875094E0,-2.0457458E0,-6.6954727E0,-1.1150818E-1,2.2753094E-1,-5.1606752E-2,-9.809204E-2,-2.4555436E-1,-3.2516328E-1,-7.2400796E-1],"categories":[],"categories_nodes":[],"categories_segments":[],"categories_sizes":[],"default_left":[0,0,0,0,0,0,0,0,0,0,0,0,0,0,0,0,0,0,0,0,0,0,0,0,0,0,0,0,0,0,0,0,0,0,0,0,0],"id":26,"left_children":[1,3,5,7,9,11,13,-1,-1,-1,15,17,19,21,23,-1,-1,25,27,29,-1,-1,-1,-1,-1,-1,-1,31,33,35,-1,-1,-1,-1,-1,-1,-1],"loss_changes":[3.859486E5,3.1179469E4,6.114975E4,9.9315625E2,8.8130625E3,2.8856187E3,8.095625E3,0E0,0E0,0E0,5.7926758E1,5.137624E2,3.763755E2,4.8996875E2,7.3171094E2,0E0,0E0,1.09357544E2,5.674019E1,1.6279297E1,0E0,0E0,0E0,0E0,0E0,0E0,0E0,1.7208368E1,2.8276634E0,6.4665527E0,0E0,0E0,0E0,0E0,0E0,0E0,0E0],"parents":[2147483647,0,0,1,1,2,2,3,3,4,4,5,5,6,6,10,10,11,11,12,12,13,13,14,14,17,17,18,18,19,19,27,27,28,28,29,29],"right_children":[2,4,6,8,10,12,14,-1,-1,-1,16,18,20,22,24,-1,-1,26,28,30,-1,-1,-1,-1,-1,-1,-1,32,34,36,-1,-1,-1,-1,-1,-1,-1],"split_conditions":[9.2300725E-1,3.5574E2,9.562198E-1,3.5334E2,3.6863E2,6.8047E2,9.786232E-1,1.2272273E1,7.505131E0,5.5656724E0,4E0,9.377415E-1,6.8544E2,1.3E1,3.5521E2,6.975159E-1,2.6770797E0,6.7462E2,6.7894E2,9.5E1,-1.4490277E0,-1.9665062E0,-3.484209E0,-4.844904E0,-7.305678E0,9.385769E-1,3.850131E-1,9.815E2,5.7E1,6.8234E2,-1.1150818E-1,2.2753094E-1,-5.1606752E-2,-9.809204E-2,-2.4555436E-1,-3.2516328E-1,-7.2400796E-1],"split_indices":[6,5,6,5,5,5,6,0,0,0,26,6,5,14,5,0,0,5,5,18,0,0,0,0,0,0,0,8,16,5,0,0,0,0,0,0,0],"split_type":[0,0,0,0,0,0,0,0,0,0,0,0,0,0,0,0,0,0,0,0,0,0,0,0,0,0,0,0,0,0,0,0,0,0,0,0,0],"sum_hessian":[2.34E2,7.5E1,1.59E2,1.7E1,5.8E1,6.5E1,9.4E1,6E0,1.1E1,4.1E1,1.7E1,3.7E1,2.8E1,5.3E1,4.1E1,1E0,1.6E1,1.8E1,1.9E1,1.6E1,1.2E1,7E0,4.6E1,3.5E1,6E0,8E0,1E1,8E0,1.1E1,1.5E1,1E0,5E0,3E0,4E0,7E0,3E0,1.2E1],"tree_param":{"num_deleted":"0","num_feature":"37","num_nodes":"37","size_leaf_vector":"1"}},{"base_weights":[8.464966E-1,5.1609505E1,-2.2926048E1,8.704613E1,4.0836555E1,-4.0720856E1,-6.062826E0,1.2100137E1,6.8701677E0,4.8545527E0,2.273984E1,-3.7118572E1,-5.608095E0,-8.6163914E-1,-1.7548967E1,2.6917703E0,1.5452417E0,-2.5920823E0,-3.8739479E0,3.4323752E0,-4.1774936E0,-1.9835155E1,-1.0518663E1,4.9771814E0,1.7617309E0,-2.1038072E0,-5.9221706E0,-4.1819152E-1,-2.043891E0,-1.1263916E0,-2.2783203E-1,5.387644E-1,1.6762696E-1,1.7960206E-2,2.3207231E-1,-1.1083832E-1,-2.6364967E-1,-7.0819366E-1,-4.4348922E-1],"categories":[],"categories_nodes":[],"categories_segments":[],"categories_sizes":[],"default_left":[0,0,0,0,0,0,0,0,0,0,0,0,0,0,0,0,0,0,0,0,0,0,0,0,0,0,0,0,0,0,0,0,0,0,0,0,0,0,0],"id":27,"left_children":[1,3,5,7,9,11,13,-1,-1,-1,15,17,-1,19,21,-1,-1,-1,-1,23,25,27,29,31,33,35,37,-1,-1,-1,-1,-1,-1,-1,-1,-1,-1,-1,-1],"loss_changes":[3.06495E5,2.7367625E4,5.166658E4,2.8990312E3,7.8245234E3,2.5661875E3,5.3616206E3,0E0,0E0,0E0,2.2341992E2,2.8453906E2,0E0,9.1135333E2,2.4139355E2,0E0,0E0,0E0,0E0,6.3494568E1,1.17785706E2,1.0354004E2,2.9607422E1,9.9374695E0,1.2849159E1,6.622284E0,1.3654175E0,0E0,0E0,0E0,0E0,0E0,0E0,0E0,0E0,0E0,0E0,0E0,0E0],"parents":[2147483647,0,0,1,1,2,2,3,3,4,4,5,5,6,6,10,10,11,11,13,13,14,14,19,19,20,20,21,21,22,22,23,23,24,24,25,25,26,26],"right_children":[2,4,6,8,10,12,14,-1,-1,-1,16,18,-1,20,22,-1,-1,-1,-1,24,26,28,30,32,34,36,38,-1,-1,-1,-1,-1,-1,-1,-1,-1,-1,-1,-1],"split_conditions":[9.3140095E-1,3.5645E2,4.0629166E2,3.526E2,3.6863E2,3.5467E2,6.8544E2,1.2100137E1,6.8701677E0,4.8545527E0,3.7344E2,3.5195E2,-5.608095E0,6.7894E2,2.4E1,2.6917703E0,1.5452417E0,-2.5920823E0,-3.8739479E0,9.3550724E-1,6.8095E2,6.8635E2,6.9385E2,1.06E3,2.7E1,6.7973E2,-5E0,-4.1819152E-1,-2.043891E0,-1.1263916E0,-2.2783203E-1,5.387644E-1,1.6762696E-1,1.7960206E-2,2.3207231E-1,-1.1083832E-1,-2.6364967E-1,-7.0819366E-1,-4.4348922E-1],"split_indices":[6,5,4,5,5,5,5,0,0,0,5,5,0,5,10,0,0,0,0,6,5,5,5,8,13,5,35,0,0,0,0,0,0,0,0,0,0,0,0],"split_type":[0,0,0,0,0,0,0,0,0,0,0,0,0,0,0,0,0,0,0,0,0,0,0,0,0,0,0,0,0,0,0,0,0,0,0,0,0,0,0],"sum_hessian":[2.52E2,8E1,1.72E2,1.7E1,6.3E1,8.3E1,8.9E1,4E0,1.3E1,4.3E1,2E1,7E1,1.3E1,6.2E1,2.7E1,1.1E1,9E0,1.1E1,5.9E1,2.7E1,3.5E1,1.9E1,8E0,1.3E1,1.4E1,1.7E1,1.8E1,1E0,1.8E1,7E0,1E0,1.1E1,2E0,4E0,1E1,7E0,1E1,8E0,1E1],"tree_param":{"num_deleted":"0","num_feature":"37","num_nodes":"39","size_leaf_vector":"1"}},{"base_weights":[2.0967238E0,-2.1933088E1,4.8104477E1,-3.7464394E1,-5.7309527E0,8.669172E0,3.969982E1,-3.3741665E1,-5.8087044E0,3.2513118E-1,-1.5118603E1,4.890559E1,2.4998367E1,-2.6001408E0,-3.626723E0,-2.6868732E0,4.1438127E0,-1.8108917E1,-8.874863E0,1.4112793E0,4.940998E0,2.8586643E0,1.3848132E0,-1.8902212E0,-8.695567E-1,2.0173376E0,9.47819E0,-3.972809E-1,-1.8643827E1,-9.288141E-1,-2.1643983E-1,1.748993E-1,-2.839986E-1,3.1128773E-1,-1.2345337E-1,4.0310058E-1,1.1194031E0,-1.9112705E0,-5.1020205E-1],"categories":[],"categories_nodes":[],"categories_segments":[],"categories_sizes":[],"default_left":[0,0,0,0,0,0,0,0,0,0,0,0,0,0,0,0,0,0,0,0,0,0,0,0,0,0,0,0,0,0,0,0,0,0,0,0,0,0,0],"id":28,"left_children":[1,3,5,7,9,-1,11,13,-1,15,17,19,21,-1,-1,23,25,27,29,-1,-1,-1,-1,31,-1,33,35,-1,37,-1,-1,-1,-1,-1,-1,-1,-1,-1,-1],"loss_changes":[2.6749447E5,3.979611E4,2.3476281E4,4.258617E3,4.496255E3,0E0,8.251125E3,4.449453E2,0E0,5.7472626E2,4.180791E2,3.975E1,7.644219E2,0E0,0E0,1.17594925E2,2.304346E2,7.71626E1,1.317627E1,0E0,0E0,0E0,0E0,9.483345E1,0E0,6.440639E1,1.0955811E1,0E0,2.3125488E1,0E0,0E0,0E0,0E0,0E0,0E0,0E0,0E0,0E0,0E0],"parents":[2147483647,0,0,1,1,2,2,3,3,4,4,6,6,7,7,9,9,10,10,11,11,12,12,15,15,16,16,17,17,18,18,23,23,25,25,26,26,28,28],"right_children":[2,4,6,8,10,-1,12,14,-1,16,18,20,22,-1,-1,24,26,28,30,-1,-1,-1,-1,32,-1,34,36,-1,38,-1,-1,-1,-1,-1,-1,-1,-1,-1,-1],"split_conditions":[1.196E3,4.14E2,3.5474E2,3.5495E2,6.8409E2,8.669172E0,3.6453E2,3.5238E2,-5.8087044E0,9.97E2,2.4E1,1.1E1,3.7337E2,-2.6001408E0,-3.626723E0,8.7E1,7.3E1,6.8635E2,6.9385E2,1.4112793E0,4.940998E0,2.8586643E0,1.3848132E0,6.7894E2,-8.695567E-1,6.7676E2,6.5E1,-3.972809E-1,6.9556E2,-9.288141E-1,-2.1643983E-1,1.748993E-1,-2.839986E-1,3.1128773E-1,-1.2345337E-1,4.0310058E-1,1.1194031E0,-1.9112705E0,-5.1020205E-1],"split_indices":[7,7,5,5,5,0,5,5,0,7,10,25,5,0,0,34,30,5,5,0,0,0,0,5,0,5,10,0,5,0,0,0,0,0,0,0,0,0,0],"split_type":[0,0,0,0,0,0,0,0,0,0,0,0,0,0,0,0,0,0,0,0,0,0,0,0,0,0,0,0,0,0,0,0,0,0,0,0,0,0,0],"sum_hessian":[2.4E2,1.58E2,8.2E1,8E1,7.8E1,1.3E1,6.9E1,7E1,1E1,4.8E1,3E1,4.1E1,2.8E1,2E1,5E1,2.7E1,2.1E1,1.9E1,1.1E1,1E0,4E1,2E1,8E0,2.5E1,2E0,1.6E1,5E0,1E0,1.8E1,1E1,1E0,5E0,2E1,1.2E1,4E0,2E0,3E0,1.7E1,1E0],"tree_param":{"num_deleted":"0","num_feature":"37","num_nodes":"39","size_leaf_vector":"1"}},{"base_weights":[1.3366387E0,4.361317E1,-2.0319035E1,6.141839E1,2.9278347E1,-5.790794E0,-3.4432426E1,1.0438594E1,5.304699E0,3.4457748E0,1.6442223E0,-1.7394084E0,-1.5677975E1,-3.1413605E1,-6.31518E0,1.8547709E0,-5.161536E0,-9.547407E-1,-1.7191086E1,-2.6845324E0,-3.5515869E0,3.6765137E0,-2.1207276E-1,-3.244287E0,-6.5496073E0,-4.846924E-1,-1.7632099E0,5.05542E-1,2.5901544E-1,7.407735E-2,-7.6257326E-2,-1.7015295E-1,-4.0837336E-1,-1.5126038E-1,-6.7698824E-1],"categories":[],"categories_nodes":[],"categories_segments":[],"categories_sizes":[],"default_left":[0,0,0,0,0,0,0,0,0,0,0,0,0,0,0,0,0,0,0,0,0,0,0,0,0,0,0,0,0,0,0,0,0,0,0],"id":29,"left_children":[1,3,5,7,9,11,13,-1,-1,-1,-1,15,17,19,-1,21,23,-1,25,-1,-1,27,29,31,33,-1,-1,-1,-1,-1,-1,-1,-1,-1,-1],"loss_changes":[2.2976784E5,1.9896719E4,3.383771E4,7.7714844E3,2.691129E3,3.2974426E3,5.2988594E3,0E0,0E0,0E0,0E0,7.47558E2,5.8499023E1,5.083047E2,0E0,1.1373742E2,6.1250854E1,0E0,1.2529785E1,0E0,0E0,1.0873489E1,8.433029E0,1.2477325E1,8.621765E0,0E0,0E0,0E0,0E0,0E0,0E0,0E0,0E0,0E0,0E0],"parents":[2147483647,0,0,1,1,2,2,3,3,4,4,5,5,6,6,11,11,12,12,13,13,15,15,16,16,18,18,21,21,22,22,23,23,24,24],"right_children":[2,4,6,8,10,12,14,-1,-1,-1,-1,16,18,20,-1,22,24,-1,26,-1,-1,28,30,32,34,-1,-1,-1,-1,-1,-1,-1,-1,-1,-1],"split_conditions":[9.3140095E-1,3.6002E2,9.75E-1,3.526E2,3.6949E2,9.504831E-1,3.5523E2,1.0438594E1,5.304699E0,3.4457748E0,1.6442223E0,6.7986E2,9.559783E-1,3.5301E2,-6.31518E0,9.3719804E-1,6.8339E2,-9.547407E-1,1E0,-2.6845324E0,-3.5515869E0,6.7462E2,2.1E1,1.3E1,1.8E1,-4.846924E-1,-1.7632099E0,5.05542E-1,2.5901544E-1,7.407735E-2,-7.6257326E-2,-1.7015295E-1,-4.0837336E-1,-1.5126038E-1,-6.7698824E-1],"split_indices":[6,5,6,5,5,6,5,0,0,0,0,5,6,5,0,6,5,0,26,0,0,5,32,0,26,0,0,0,0,0,0,0,0,0,0],"split_type":[0,0,0,0,0,0,0,0,0,0,0,0,0,0,0,0,0,0,0,0,0,0,0,0,0,0,0,0,0,0,0,0,0,0,0],"sum_hessian":[2.49E2,8.4E1,1.65E2,3.6E1,4.8E1,8.2E1,8.3E1,4E0,3.2E1,3.3E1,1.5E1,5.9E1,2.3E1,7.7E1,6E0,2.9E1,3E1,6E0,1.7E1,4E1,3.7E1,1.5E1,1.4E1,1.4E1,1.6E1,1E0,1.6E1,5E0,1E1,5E0,9E0,6E0,8E0,1E0,1.5E1],"tree_param":{"num_deleted":"0","num_feature":"37","num_nodes":"35","size_leaf_vector":"1"}},{"base_weights":[-2.8267467E-1,4.064031E1,-1.703312E1,9.174984E0,3.5297268E1,-1.8133862E0,-2.9189817E1,4.218296E0,2.3346313E1,3.258806E0,-6.1178036E0,-2.2703651E1,-3.650556E1,2.3787115E1,6.163147E-1,6.7449293E0,1.2347056E0,-3.5211182E0,-8.546817E0,-1.673106E1,-2.5059288E0,-3.3035398E0,-5.627175E0,2.4857271E1,1.1954468E0,3.0556884E0,8.045071E-1,1.9799087E0,-5.031891E-1,-1.9002838E-1,-4.150822E0,-2.196167E-1,-8.754541E-1,-4.6045837E-1,-1.7173525E1,6.7912596E-1,2.5394166E0,8.701783E-2,3.3845216E-1,-9.2968754E-2,2.219864E-1,4.691569E-3,-6.943767E-2,-4.3600947E-1,-6.1050415E-2,-1.8785418E0,-9.5479006E-1],"categories":[],"categories_nodes":[],"categories_segments":[],"categories_sizes":[],"default_left":[0,0,0,0,0,0,0,0,0,0,0,0,0,0,0,0,0,0,0,0,0,0,0,0,0,0,0,0,0,0,0,0,0,0,0,0,0,0,0,0,0,0,0,0,0,0,0],"id":30,"left_children":[1,3,5,-1,7,9,11,-1,13,15,17,19,21,23,-1,25,27,29,31,33,-1,-1,-1,35,-1,37,-1,39,41,-1,43,-1,-1,-1,45,-1,-1,-1,-1,-1,-1,-1,-1,-1,-1,-1,-1],"loss_changes":[1.6520698E5,1.5877094E4,3.1585781E4,0E0,4.3640703E3,1.7010648E3,3.6790547E3,0E0,5.033008E1,2.4569748E2,2.3481567E2,3.2640234E2,1.0904922E3,1.9414062E1,0E0,3.777179E1,3.20783E1,1.4566498E1,8.476318E0,1.7502441E1,0E0,0E0,0E0,4.0930664E1,0E0,6.48201E-1,0E0,1.3932716E1,8.739629E-1,0E0,8.451477E0,0E0,0E0,0E0,2.9597656E1,0E0,0E0,0E0,0E0,0E0,0E0,0E0,0E0,0E0,0E0,0E0,0E0],"parents":[2147483647,0,0,1,1,2,2,4,4,5,5,6,6,8,8,9,9,10,10,11,11,12,12,13,13,15,15,16,16,17,17,18,18,19,19,23,23,25,25,27,27,28,28,30,30,34,34],"right_children":[2,4,6,-1,8,10,12,-1,14,16,18,20,22,24,-1,26,28,30,32,34,-1,-1,-1,36,-1,38,-1,40,42,-1,44,-1,-1,-1,46,-1,-1,-1,-1,-1,-1,-1,-1,-1,-1,-1,-1],"split_conditions":[9.205918E-1,3.5334E2,9.568841E-1,9.174984E0,3.6439E2,6.7986E2,9.7928745E-1,4.218296E0,1.2E1,9.347826E-1,6.8409E2,9.753019E-1,3.5534E2,3.7285E2,6.163147E-1,1.096E3,6.7794E2,9.4263285E-1,6E0,1E0,-2.5059288E0,-3.3035398E0,-5.627175E0,4E0,1.1954468E0,7.221111E2,8.045071E-1,7.221111E2,6.7894E2,-1.9002838E-1,9.5E1,-2.196167E-1,-8.754541E-1,-4.6045837E-1,7E0,6.7912596E-1,2.5394166E0,8.701783E-2,3.3845216E-1,-9.2968754E-2,2.219864E-1,4.691569E-3,-6.943767E-2,-4.3600947E-1,-6.1050415E-2,-1.8785418E0,-9.5479006E-1],"split_indices":[6,5,6,0,5,5,6,0,1,6,5,6,5,5,0,7,5,6,0,26,0,0,0,10,0,4,0,4,5,0,18,0,0,0,35,0,0,0,0,0,0,0,0,0,0,0,0],"split_type":[0,0,0,0,0,0,0,0,0,0,0,0,0,0,0,0,0,0,0,0,0,0,0,0,0,0,0,0,0,0,0,0,0,0,0,0,0,0,0,0,0,0,0,0,0,0,0],"sum_hessian":[2.39E2,6.9E1,1.7E2,5E0,6.4E1,7.6E1,9.4E1,3.9E1,2.5E1,3.5E1,4.1E1,5.2E1,4.2E1,2.4E1,1E0,1.2E1,2.3E1,2.1E1,2E1,1.7E1,3.5E1,3.8E1,4E0,2.1E1,3E0,4E0,8E0,1.6E1,7E0,7E0,1.4E1,1E0,1.9E1,1E0,1.6E1,1E0,2E1,1E0,3E0,1E0,1.5E1,2E0,5E0,1.3E1,1E0,1.2E1,4E0],"tree_param":{"num_deleted":"0","num_feature":"37","num_nodes":"47","size_leaf_vector":"1"}},{"base_weights":[9.168995E-1,3.5124565E1,-1.6710789E1,7.08473E1,2.9416904E1,-2.8570492E1,-4.3580346E0,8.869512E0,4.797782E0,3.4843594E1,1.4759716E1,-2.633839E1,-5.857002E0,-4.466712E-2,-9.602816E0,3.8664455E0,2.6998222E0,1.7071699E0,9.523329E-1,-2.1947544E0,-2.9979742E0,2.2256415E0,-2.040752E0,-1.2498142E1,-6.516881E0,2.4157367E0,-8.831787E-2,-7.0336914E-1,-3.041312E0,-3.923055E-1,-1.3324837E1,-6.972046E-2,-6.786485E-1,2.5813782E-1,-4.4854738E-2,-3.6905927E-3,-8.3297126E-2,-3.198012E-1,-5.0210573E-2,-3.6956176E-1,-1.3720411E0],"categories":[],"categories_nodes":[],"categories_segments":[],"categories_sizes":[],"default_left":[0,0,0,0,0,0,0,0,0,0,0,0,0,0,0,0,0,0,0,0,0,0,0,0,0,0,0,0,0,0,0,0,0,0,0,0,0,0,0,0,0],"id":31,"left_children":[1,3,5,7,9,11,13,-1,-1,15,17,19,-1,21,23,-1,-1,-1,-1,-1,-1,25,27,29,31,33,-1,35,37,-1,39,-1,-1,-1,-1,-1,-1,-1,-1,-1,-1],"loss_changes":[1.5073448E5,1.52468125E4,2.4047984E4,2.3447656E2,5.4512227E3,4.082164E3,1.8546299E3,0E0,0E0,5.7483594E2,1.0376221E2,6.211094E2,0E0,2.1300148E2,2.4913818E2,0E0,0E0,0E0,0E0,0E0,0E0,1.5134911E1,3.131414E1,7.532764E1,2.6648499E1,1.1121201E1,0E0,1.0057588E0,3.9647827E0,0E0,1.0239746E1,0E0,0E0,0E0,0E0,0E0,0E0,0E0,0E0,0E0,0E0],"parents":[2147483647,0,0,1,1,2,2,3,3,4,4,5,5,6,6,9,9,10,10,11,11,13,13,14,14,21,21,22,22,23,23,24,24,25,25,27,27,28,28,30,30],"right_children":[2,4,6,8,10,12,14,-1,-1,16,18,20,-1,22,24,-1,-1,-1,-1,-1,-1,26,28,30,32,34,-1,36,38,-1,40,-1,-1,-1,-1,-1,-1,-1,-1,-1,-1],"split_conditions":[9.3278986E-1,8.7204105E-1,4.03E2,8.693237E-1,9.0434784E-1,9.861715E-1,9.464372E-1,8.869512E0,4.797782E0,8.9172703E-1,9.205918E-1,9.786836E-1,-5.857002E0,9.3858695E-1,2.2E1,3.8664455E0,2.6998222E0,1.7071699E0,9.523329E-1,-2.1947544E0,-2.9979742E0,1.126E3,9.420894E-1,9.504831E-1,1.1E1,9.4E1,-8.831787E-2,2E1,9.4E1,-3.923055E-1,1E0,-6.972046E-2,-6.786485E-1,2.5813782E-1,-4.4854738E-2,-3.6905927E-3,-8.3297126E-2,-3.198012E-1,-5.0210573E-2,-3.6956176E-1,-1.3720411E0],"split_indices":[6,6,8,6,6,6,6,0,0,6,6,6,0,6,10,0,0,0,0,0,0,7,6,6,24,17,0,26,16,0,20,0,0,0,0,0,0,0,0,0,0],"split_type":[0,0,0,0,0,0,0,0,0,0,0,0,0,0,0,0,0,0,0,0,0,0,0,0,0,0,0,0,0,0,0,0,0,0,0,0,0,0,0,0,0],"sum_hessian":[2.48E2,8.4E1,1.64E2,1E1,7.4E1,8.3E1,8.1E1,4E0,6E0,5.3E1,2.1E1,7.9E1,4E0,4.5E1,3.6E1,3.3E1,2E1,1.3E1,8E0,3.9E1,4E1,2.1E1,2.4E1,1.7E1,1.9E1,2E1,1E0,1.1E1,1.3E1,2E0,1.5E1,1E0,1.8E1,1.9E1,1E0,2E0,9E0,1.2E1,1E0,1E0,1.4E1],"tree_param":{"num_deleted":"0","num_feature":"37","num_nodes":"41","size_leaf_vector":"1"}},{"base_weights":[4.5961294E-1,3.1243221E1,-1.4658444E1,4.642483E1,2.2511559E1,-1.9253142E0,-2.3384985E1,7.766618E0,4.123413E0,2.6910141E1,1.4318063E1,8.807934E-1,-5.013213E0,-2.1777184E1,-4.925622E0,1.0323201E0,2.7624226E0,1.6829634E0,1.050485E0,2.2838717E0,-9.0423226E-1,-3.1702235E0,-6.561308E0,-1.6731863E1,-2.4992106E0,3.4187284E0,1.3225192E0,-5.131614E-1,-1.3895961E0,-3.2584076E0,-8.796387E-2,-1.7470399E-1,-6.75301E-1,-3.688324E-1,-1.6971741E0,4.847412E-2,3.724884E-1,-8.3898924E-2,1.5725607E-1,1.1404419E-2,-5.8728635E-2,-5.9771728E-2,-1.5868042E-1,-3.5644788E-1,-1.8721558E-1],"categories":[],"categories_nodes":[],"categories_segments":[],"categories_sizes":[],"default_left":[0,0,0,0,0,0,0,0,0,0,0,0,0,0,0,0,0,0,0,0,0,0,0,0,0,0,0,0,0,0,0,0,0,0,0,0,0,0,0,0,0,0,0,0,0],"id":32,"left_children":[1,3,5,7,9,11,13,-1,-1,15,17,19,21,23,-1,-1,-1,-1,-1,25,27,29,31,33,-1,35,37,39,41,43,-1,-1,-1,-1,-1,-1,-1,-1,-1,-1,-1,-1,-1,-1,-1],"loss_changes":[1.1587429E5,9.824883E3,1.8511379E4,1.5002734E3,1.5608457E3,6.02299E2,3.0453242E3,0E0,0E0,1.1753906E2,2.4327637E1,9.473279E1,7.3352234E1,1.1227656E3,0E0,0E0,0E0,0E0,0E0,1.838961E1,2.513709E0,5.676727E-1,3.8916016E0,6.255664E1,0E0,6.278702E0,8.34543E0,5.7838416E-1,1.4469433E-1,1.1540222E-1,0E0,0E0,0E0,0E0,0E0,0E0,0E0,0E0,0E0,0E0,0E0,0E0,0E0,0E0,0E0],"parents":[2147483647,0,0,1,1,2,2,3,3,4,4,5,5,6,6,9,9,10,10,11,11,12,12,13,13,19,19,20,20,21,21,22,22,23,23,25,25,26,26,27,27,28,28,29,29],"right_children":[2,4,6,8,10,12,14,-1,-1,16,18,20,22,24,-1,-1,-1,-1,-1,26,28,30,32,34,-1,36,38,40,42,44,-1,-1,-1,-1,-1,-1,-1,-1,-1,-1,-1,-1,-1,-1,-1],"split_conditions":[9.3278986E-1,8.8423914E-1,9.559783E-1,8.67814E-1,9.073068E-1,9.423309E-1,9.8508453E-1,7.766618E0,4.123413E0,1.62975E3,9.1769326E-1,9.3858695E-1,9.47343E-1,9.772343E-1,-4.925622E0,1.0323201E0,2.7624226E0,1.6829634E0,1.050485E0,9.349034E-1,9.413043E-1,9.468599E-1,6E0,1E0,-2.4992106E0,1.6E1,7.221111E2,2.3E1,7E0,9.67E2,-8.796387E-2,-1.7470399E-1,-6.75301E-1,-3.688324E-1,-1.6971741E0,4.847412E-2,3.724884E-1,-8.3898924E-2,1.5725607E-1,1.1404419E-2,-5.8728635E-2,-5.9771728E-2,-1.5868042E-1,-3.5644788E-1,-1.8721558E-1],"split_indices":[6,6,6,6,6,6,6,0,0,8,6,6,6,6,0,0,0,0,0,6,6,6,0,33,0,0,4,12,0,7,0,0,0,0,0,0,0,0,0,0,0,0,0,0,0],"split_type":[0,0,0,0,0,0,0,0,0,0,0,0,0,0,0,0,0,0,0,0,0,0,0,0,0,0,0,0,0,0,0,0,0,0,0,0,0,0,0,0,0,0,0,0,0],"sum_hessian":[2.47E2,8.1E1,1.66E2,2.8E1,5.3E1,6.8E1,9.8E1,2E0,2.6E1,3.3E1,2E1,3.6E1,3.2E1,9.4E1,4E0,2E0,3.1E1,1E1,1E1,2E1,1.6E1,1.6E1,1.6E1,3.9E1,5.5E1,8E0,1.2E1,1E1,6E0,1.5E1,1E0,1E0,1.5E1,1E0,3.8E1,1E0,7E0,1E0,1.1E1,1E0,9E0,2E0,4E0,1.1E1,4E0],"tree_param":{"num_deleted":"0","num_feature":"37","num_nodes":"45","size_leaf_vector":"1"}},{"base_weights":[4.0001085E-1,3.1674948E1,-1.2953617E1,5.7984055E1,2.5548828E1,-1.039891E0,-2.203172E1,7.6114793E0,4.146875E0,3.11962E0,1.9077303E1,2.6567845E0,-4.5203295E0,-2.0294163E1,-4.994392E0,2.0981518E1,1.2980298E0,7.128833E0,9.6473914E-1,-2.9835837E0,-7.364314E0,-1.5389948E1,-2.3259628E0,2.1683128E0,3.1238404E-1,7.850632E-1,2.8277588E-1,1.5388733E0,-4.1830784E-1,-1.7236938E0,-3.7420273E0,-4.6262717E-1,-8.497307E0,-3.5039064E-1,-1.5616492E1,1.7037675E-1,-7.970581E-2,-1.2020264E-2,-6.327515E-2,-1.9010681E-1,-5.5788167E-2,-3.9479655E-1,-3.2647707E-2,-9.008754E-1,-2.4585877E-1,-1.5799102E0,-4.5212707E-1],"categories":[],"categories_nodes":[],"categories_segments":[],"categories_sizes":[],"default_left":[0,0,0,0,0,0,0,0,0,0,0,0,0,0,0,0,0,0,0,0,0,0,0,0,0,0,0,0,0,0,0,0,0,0,0,0,0,0,0,0,0,0,0,0,0,0,0],"id":33,"left_children":[1,3,5,7,9,11,13,-1,-1,-1,15,17,19,21,-1,23,-1,25,27,29,31,33,-1,-1,-1,-1,-1,35,37,39,41,-1,43,-1,45,-1,-1,-1,-1,-1,-1,-1,-1,-1,-1,-1,-1],"loss_changes":[1.0189535E5,1.02841875E4,1.8471422E4,7.362617E2,1.6342344E3,9.7696344E2,3.690836E3,0E0,0E0,0E0,8.756348E1,2.730981E2,1.4847668E2,9.945625E2,0E0,2.0790625E2,0E0,8.845459E0,2.2877245E1,1.93499E1,1.0175171E0,4.7603516E1,0E0,0E0,0E0,0E0,0E0,9.061634E0,4.9928248E-1,1.4208527E0,9.965347E0,0E0,2.559082E0,0E0,3.5341797E0,0E0,0E0,0E0,0E0,0E0,0E0,0E0,0E0,0E0,0E0,0E0,0E0],"parents":[2147483647,0,0,1,1,2,2,3,3,4,4,5,5,6,6,10,10,11,11,12,12,13,13,15,15,17,17,18,18,19,19,20,20,21,21,27,27,28,28,29,29,30,30,32,32,34,34],"right_children":[2,4,6,8,10,12,14,-1,-1,-1,16,18,20,22,-1,24,-1,26,28,30,32,34,-1,-1,-1,-1,-1,36,38,40,42,-1,44,-1,46,-1,-1,-1,-1,-1,-1,-1,-1,-1,-1,-1,-1],"split_conditions":[9.2035025E-1,3.543E2,9.562198E-1,3.526E2,3.623E2,6.7973E2,9.861715E-1,7.6114793E0,4.146875E0,3.11962E0,9.097222E-1,9.3357486E-1,6.8544E2,9.7753626E-1,-4.994392E0,5E1,1.2980298E0,6.731E2,9.3858695E-1,6.8234E2,8.6675E2,3E0,-2.3259628E0,2.1683128E0,3.1238404E-1,7.850632E-1,2.8277588E-1,1.126E3,2.8E1,7.8E1,9.5E1,-4.6262717E-1,8E0,-3.5039064E-1,9.5E1,1.7037675E-1,-7.970581E-2,-1.2020264E-2,-6.327515E-2,-1.9010681E-1,-5.5788167E-2,-3.9479655E-1,-3.2647707E-2,-9.008754E-1,-2.4585877E-1,-1.5799102E0,-4.5212707E-1],"split_indices":[6,5,6,5,5,5,6,0,0,0,6,6,5,6,0,0,0,5,6,5,8,24,0,0,0,0,0,7,0,28,18,0,1,0,18,0,0,0,0,0,0,0,0,0,0,0,0],"split_type":[0,0,0,0,0,0,0,0,0,0,0,0,0,0,0,0,0,0,0,0,0,0,0,0,0,0,0,0,0,0,0,0,0,0,0,0,0,0,0,0,0,0,0,0,0,0,0],"sum_hessian":[2.42E2,7.2E1,1.7E2,1.2E1,6E1,7.4E1,9.6E1,4E0,8E0,3E1,3E1,3.6E1,3.8E1,9.2E1,4E0,2.1E1,9E0,9E0,2.7E1,2.6E1,1.2E1,3.7E1,5.5E1,2E1,1E0,7E0,2E0,1.9E1,8E0,1.1E1,1.5E1,5E0,7E0,1E0,3.6E1,1.8E1,1E0,4E0,4E0,9E0,2E0,1.4E1,1E0,6E0,1E0,3.5E1,1E0],"tree_param":{"num_deleted":"0","num_feature":"37","num_nodes":"47","size_leaf_vector":"1"}},{"base_weights":[1.6932496E0,2.6723665E1,-1.2550798E1,5.6883522E1,2.2514406E1,-2.0964704E0,-1.965049E1,7.421582E0,3.885313E0,2.6380692E1,1.1473827E1,1.7855422E-1,-5.13645E0,-1.7289927E1,-3.1398596E1,3.063438E0,2.1217327E1,1.3732166E0,8.4475297E-1,1.7305621E0,-1.0863357E0,-3.5163004E0,-6.610741E0,-1.26184E1,-1.8789638E0,-2.4986894E0,-4.6579213E0,2.1763113E1,2.9676515E-1,2.1173096E0,-5.569458E-2,-6.313629E-1,-1.5236695E0,-6.3827515E-2,-3.6762828E-1,-2.763916E-1,-7.058899E-1,-1.38490095E1,-7.028605E0,5.759827E-1,2.2142503E0,2.3709436E-1,-5.8996584E-2,4.30542E-2,-7.572021E-2,-1.7362468E-2,-7.0554815E-2,-1.7222443E-1,-4.8624676E-2,-3.3287048E-1,-1.4298486E0,-2.4628499E-1,-8.6957705E-1],"categories":[],"categories_nodes":[],"categories_segments":[],"categories_sizes":[],"default_left":[0,0,0,0,0,0,0,0,0,0,0,0,0,0,0,0,0,0,0,0,0,0,0,0,0,0,0,0,0,0,0,0,0,0,0,0,0,0,0,0,0,0,0,0,0,0,0,0,0,0,0,0,0],"id":34,"left_children":[1,3,5,7,9,11,13,-1,-1,15,17,19,21,23,25,-1,27,-1,-1,29,31,33,35,37,-1,-1,-1,39,-1,41,43,45,47,-1,-1,-1,-1,49,51,-1,-1,-1,-1,-1,-1,-1,-1,-1,-1,-1,-1,-1,-1],"loss_changes":[8.554713E4,9.764012E3,1.1314846E4,2.415625E2,3.0268242E3,4.366269E2,1.98075E3,0E0,0E0,6.019297E2,3.4354004E1,7.451538E1,4.1246094E1,3.093672E2,1.987998E2,0E0,2.2426758E2,0E0,0E0,1.1862038E1,3.216486E0,4.5599976E0,2.9015503E0,5.399585E1,0E0,0E0,0E0,4.2463867E1,0E0,1.1011974E1,1.6904018E0,2.8498793E-1,1.2226219E0,0E0,0E0,0E0,0E0,3.2791016E1,2.4254822E1,0E0,0E0,0E0,0E0,0E0,0E0,0E0,0E0,0E0,0E0,0E0,0E0,0E0,0E0],"parents":[2147483647,0,0,1,1,2,2,3,3,4,4,5,5,6,6,9,9,10,10,11,11,12,12,13,13,14,14,16,16,19,19,20,20,21,21,22,22,23,23,27,27,29,29,30,30,31,31,32,32,37,37,38,38],"right_children":[2,4,6,8,10,12,14,-1,-1,16,18,20,22,24,26,-1,28,-1,-1,30,32,34,36,38,-1,-1,-1,40,-1,42,44,46,48,-1,-1,-1,-1,50,52,-1,-1,-1,-1,-1,-1,-1,-1,-1,-1,-1,-1,-1,-1],"split_conditions":[9.3278986E-1,8.718599E-1,9.588768E-1,3.5216E2,3.6863E2,6.8317E2,9.8375607E-1,7.421582E0,3.885313E0,3.6002E2,3.7285E2,9.3858695E-1,6.8544E2,9.7566426E-1,3.5548E2,3.063438E0,4.9E1,1.3732166E0,8.4475297E-1,1.05825E3,6.8029E2,1.1E1,-9E0,7E0,-1.8789638E0,-2.4986894E0,-4.6579213E0,1.1E1,2.9676515E-1,9.4E1,9.3641305E-1,6.7894E2,7.6E1,-6.3827515E-2,-3.6762828E-1,-2.763916E-1,-7.058899E-1,7E0,3.9E1,5.759827E-1,2.2142503E0,2.3709436E-1,-5.8996584E-2,4.30542E-2,-7.572021E-2,-1.7362468E-2,-7.0554815E-2,-1.7222443E-1,-4.8624676E-2,-3.3287048E-1,-1.4298486E0,-2.4628499E-1,-8.6957705E-1],"split_indices":[6,6,6,5,5,5,6,0,0,5,5,6,5,6,5,0,0,0,0,8,5,25,36,35,0,0,0,25,0,17,6,5,18,0,0,0,0,12,0,0,0,0,0,0,0,0,0,0,0,0,0,0,0],"split_type":[0,0,0,0,0,0,0,0,0,0,0,0,0,0,0,0,0,0,0,0,0,0,0,0,0,0,0,0,0,0,0,0,0,0,0,0,0,0,0,0,0,0,0,0,0,0,0,0,0,0,0,0,0],"sum_hessian":[2.38E2,8.6E1,1.52E2,9E0,7.7E1,6.2E1,9E1,3E0,6E0,5.6E1,2.1E1,3.6E1,2.6E1,7.7E1,1.3E1,2.8E1,2.8E1,1E1,1.1E1,1.6E1,2E1,1.4E1,1.2E1,2.1E1,5.6E1,1.1E1,2E0,2.7E1,1E0,1.3E1,3E0,1.1E1,9E0,1E0,1.3E1,2E0,1E1,1.6E1,5E0,1E0,2.6E1,1.2E1,1E0,2E0,1E0,2E0,9E0,7E0,2E0,1E0,1.5E1,2E0,3E0],"tree_param":{"num_deleted":"0","num_feature":"37","num_nodes":"53","size_leaf_vector":"1"}},{"base_weights":[5.187941E-1,2.403525E1,-9.798474E0,3.56337E1,1.7878454E1,-2.5223112E0,-1.8441563E1,4.7875366E0,3.0179517E0,2.075238E1,1.3146806E1,4.5254314E-1,-7.5499954E0,-1.5315759E0,-2.3194964E0,5.471863E-1,2.109061E0,1.3504342E1,2.819275E-1,3.5050688E0,-1.1613464E0,-9.777021E0,-4.9035254E0,3.4210816E-1,1.3837451E1,4.8588424E0,1.8326527E0,-5.548677E-2,-2.2644317E0,-2.094635E-1,-1.0105713E1,-5.276658E0,-2.2783966E0,3.9782715E-1,1.4146973E0,3.6133763E-1,6.9756263E-1,6.888835E-2,2.0102811E-1,6.27649E-2,-6.2014263E-2,-2.441525E-1,-4.4706218E-2,-2.5889283E-1,-1.0413704E0,-3.4462205E-1,-6.4475137E-1,1.0993042E-1,-3.7707317E-1],"categories":[],"categories_nodes":[],"categories_segments":[],"categories_sizes":[],"default_left":[0,0,0,0,0,0,0,0,0,0,0,0,0,0,0,0,0,0,0,0,0,0,0,0,0,0,0,0,0,0,0,0,0,0,0,0,0,0,0,0,0,0,0,0,0,0,0,0,0],"id":35,"left_children":[1,3,5,7,9,11,13,-1,-1,15,17,19,21,-1,-1,-1,-1,23,-1,25,27,29,31,-1,33,35,37,39,41,-1,43,45,47,-1,-1,-1,-1,-1,-1,-1,-1,-1,-1,-1,-1,-1,-1,-1,-1],"loss_changes":[5.9678773E4,4.718625E3,1.0707422E4,2.2435156E2,4.2069238E2,1.40934E3,8.0369336E2,0E0,0E0,3.9645508E1,4.316162E1,2.9965698E2,1.5833948E2,0E0,0E0,0E0,0E0,2.3196533E1,0E0,3.864093E1,4.866865E1,2.4284668E1,5.60907E0,0E0,4.751953E0,3.7946472E0,8.499794E-1,8.489699E0,5.3453674E0,0E0,1.2396484E1,9.928101E0,2.4307825E1,0E0,0E0,0E0,0E0,0E0,0E0,0E0,0E0,0E0,0E0,0E0,0E0,0E0,0E0,0E0,0E0],"parents":[2147483647,0,0,1,1,2,2,3,3,4,4,5,5,6,6,9,9,10,10,11,11,12,12,17,17,19,19,20,20,21,21,22,22,24,24,25,25,26,26,27,27,28,28,30,30,31,31,32,32],"right_children":[2,4,6,8,10,12,14,-1,-1,16,18,20,22,-1,-1,-1,-1,24,-1,26,28,30,32,-1,34,36,38,40,42,-1,44,46,48,-1,-1,-1,-1,-1,-1,-1,-1,-1,-1,-1,-1,-1,-1,-1,-1],"split_conditions":[9.205918E-1,8.824275E-1,9.75E-1,8.70471E-1,8.9927536E-1,9.47343E-1,9.803744E-1,4.7875366E0,3.0179517E0,1.1E1,1.1E1,9.3599033E-1,2E1,-1.5315759E0,-2.3194964E0,5.471863E-1,2.109061E0,1E0,2.819275E-1,9.3411833E-1,9.420894E-1,9.504831E-1,6E0,3.4210816E-1,1E0,6.5E1,1.6E1,9.3858695E-1,7.3E1,-2.094635E-1,1E0,9.492754E-1,3.9E1,3.9782715E-1,1.4146973E0,3.6133763E-1,6.9756263E-1,6.888835E-2,2.0102811E-1,6.27649E-2,-6.2014263E-2,-2.441525E-1,-4.4706218E-2,-2.5889283E-1,-1.0413704E0,-3.4462205E-1,-6.4475137E-1,1.0993042E-1,-3.7707317E-1],"split_indices":[6,6,6,6,6,6,6,0,0,25,1,6,13,0,0,0,0,13,0,6,6,6,35,0,14,10,0,6,20,0,20,6,0,0,0,0,0,0,0,0,0,0,0,0,0,0,0,0,0],"split_type":[0,0,0,0,0,0,0,0,0,0,0,0,0,0,0,0,0,0,0,0,0,0,0,0,0,0,0,0,0,0,0,0,0,0,0,0,0,0,0,0,0,0,0,0,0,0,0,0,0],"sum_hessian":[2.44E2,7.4E1,1.7E2,2.4E1,5E1,9.3E1,7.7E1,5E0,1.9E1,2.9E1,2.1E1,5.9E1,3.4E1,4.9E1,2.8E1,1E0,2.8E1,2E1,1E0,2E1,3.9E1,1.7E1,1.7E1,1E0,1.9E1,1E1,1E1,2E1,1.9E1,1E0,1.6E1,1.4E1,3E0,1E0,1.8E1,8E0,2E0,2E0,8E0,9E0,1.1E1,1.7E1,2E0,1E0,1.5E1,7E0,7E0,1E0,2E0],"tree_param":{"num_deleted":"0","num_feature":"37","num_nodes":"49","size_leaf_vector":"1"}},{"base_weights":[9.3200463E-1,2.0897896E1,-9.480108E0,1.6094252E1,3.4140575E0,-1.930193E0,-1.606435E1,2.0607391E1,1.1093406E1,2.803331E-1,-4.799119E0,-1.4019539E1,-2.7846525E1,5.198242E-1,2.0926483E1,1.3238869E1,6.77432E0,1.6617066E0,-7.9304385E-1,-3.2999616E0,-6.7050605E0,-9.487051E0,-1.534075E0,-2.0427856E0,-3.7576897E0,2.1257446E1,5.3333133E-1,1.3632983E1,2.6782838E-1,1.3554688E-1,7.1129355E0,2.4285522E0,8.135099E-1,-3.5484695E-1,-1.3583263E0,-3.448584E0,-1.6375734E-2,-6.9973755E-1,-1.4524841E-1,-1.0407883E1,-4.642981E0,2.1829307E0,8.643636E-1,3.2500002E-1,1.4008404E0,4.037256E-1,8.1461185E-1,2.8998718E-1,3.6218263E-2,1.0132325E-1,-5.918579E-2,5.7135012E-2,-5.2797157E-2,-7.923991E-2,-1.6978659E-1,-4.8428345E-2,-3.579111E-1,-2.6415712E-1,-1.0749532E0,-6.3258976E-1,1.0443421E-1],"categories":[],"categories_nodes":[],"categories_segments":[],"categories_sizes":[],"default_left":[0,0,0,0,0,0,0,0,0,0,0,0,0,0,0,0,0,0,0,0,0,0,0,0,0,0,0,0,0,0,0,0,0,0,0,0,0,0,0,0,0,0,0,0,0,0,0,0,0,0,0,0,0,0,0,0,0,0,0,0,0],"id":36,"left_children":[1,3,5,7,-1,9,11,13,15,17,19,21,23,-1,25,27,29,31,33,35,37,39,-1,-1,-1,41,-1,43,-1,-1,45,47,49,51,53,55,-1,-1,-1,57,59,-1,-1,-1,-1,-1,-1,-1,-1,-1,-1,-1,-1,-1,-1,-1,-1,-1,-1,-1,-1],"loss_changes":[5.216989E4,4.9212656E3,8.1712197E3,1.2384121E3,0E0,4.960085E2,1.7297266E3,5.3476562E1,2.1610767E2,6.8040855E1,7.502197E1,3.155664E2,9.862109E1,0E0,5.177246E1,5.0891113E1,1.4212402E1,1.1033066E1,5.958334E0,9.223587E0,1.1332153E1,4.088794E1,0E0,0E0,0E0,3.4929688E1,0E0,3.243213E1,0E0,0E0,5.244934E0,8.688927E0,3.6872106E0,2.867216E0,7.6831245E-1,6.0051117E0,0E0,0E0,0E0,1.4058105E1,5.4462845E1,0E0,0E0,0E0,0E0,0E0,0E0,0E0,0E0,0E0,0E0,0E0,0E0,0E0,0E0,0E0,0E0,0E0,0E0,0E0,0E0],"parents":[2147483647,0,0,1,1,2,2,3,3,5,5,6,6,7,7,8,8,9,9,10,10,11,11,12,12,14,14,15,15,16,16,17,17,18,18,19,19,20,20,21,21,25,25,27,27,30,30,31,31,32,32,33,33,34,34,35,35,39,39,40,40],"right_children":[2,4,6,8,-1,10,12,14,16,18,20,22,24,-1,26,28,30,32,34,36,38,40,-1,-1,-1,42,-1,44,-1,-1,46,48,50,52,54,56,-1,-1,-1,58,60,-1,-1,-1,-1,-1,-1,-1,-1,-1,-1,-1,-1,-1,-1,-1,-1,-1,-1,-1,-1],"split_conditions":[9.3278986E-1,1.9675E3,9.588768E-1,3.6453E2,3.4140575E0,6.8234E2,9.8375607E-1,1.1E1,3.7337E2,9.3816423E-1,6.8635E2,9.754227E-1,3.5548E2,5.198242E-1,8.7E1,4.5E1,1.4E1,6.7545E2,6.8008E2,9.5E1,6.2E1,7E0,-1.534075E0,-2.0427856E0,-3.7576897E0,8.7E1,5.3333133E-1,4E0,2.6782838E-1,1.3554688E-1,1.2E1,1.06E3,8.8E1,1.9E1,1.8E1,1.1E1,-1.6375734E-2,-6.9973755E-1,-1.4524841E-1,2E0,9.66244E-1,2.1829307E0,8.643636E-1,3.2500002E-1,1.4008404E0,4.037256E-1,8.1461185E-1,2.8998718E-1,3.6218263E-2,1.0132325E-1,-5.918579E-2,5.7135012E-2,-5.2797157E-2,-7.923991E-2,-1.6978659E-1,-4.8428345E-2,-3.579111E-1,-2.6415712E-1,-1.0749532E0,-6.3258976E-1,1.0443421E-1],"split_indices":[6,7,6,5,0,5,6,25,5,6,5,6,5,0,34,0,0,5,5,18,26,35,0,0,0,27,0,10,0,0,32,8,17,28,0,25,0,0,0,25,6,0,0,0,0,0,0,0,0,0,0,0,0,0,0,0,0,0,0,0,0],"split_type":[0,0,0,0,0,0,0,0,0,0,0,0,0,0,0,0,0,0,0,0,0,0,0,0,0,0,0,0,0,0,0,0,0,0,0,0,0,0,0,0,0,0,0,0,0,0,0,0,0,0,0,0,0,0,0,0,0,0,0,0,0],"sum_hessian":[2.49E2,8.5E1,1.64E2,6.4E1,2.1E1,7.7E1,8.7E1,3.2E1,3.2E1,4.4E1,3.3E1,7.6E1,1.1E1,1E0,3.1E1,2E1,1.2E1,1.9E1,2.5E1,2E1,1.3E1,1.9E1,5.7E1,8E0,3E0,3E1,1E0,1.9E1,1E0,1E0,1.1E1,9E0,1E1,1.5E1,1E1,1.9E1,1E0,1.2E1,1E0,1.5E1,4E0,2.8E1,2E0,1E0,1.8E1,4E0,7E0,7E0,2E0,9E0,1E0,2E0,1.3E1,5E0,5E0,1E0,1.8E1,1E0,1.4E1,3E0,1E0],"tree_param":{"num_deleted":"0","num_feature":"37","num_nodes":"61","size_leaf_vector":"1"}},{"base_weights":[-9.544302E-2,1.8916214E1,-9.540886E0,2.6131777E1,1.0845591E1,-1.6042917E0,-1.4597221E1,5.7498903E0,2.3910126E1,1.2558825E1,5.9442444E0,5.735321E-1,-3.7319813E0,-1.3216439E1,-3.7360322E0,5.4064333E-1,2.4245954E0,3.0875245E-1,1.2795261E1,1.2877198E-1,6.2504992E0,1.6059774E0,-7.036377E-1,-2.7241905E0,-5.408292E0,-1.0397832E1,-1.5991892E0,3.6938477E-1,1.3003244E1,2.4192707E-1,6.8330755E0,1.7980957E-1,2.0006104E0,2.6062012E-2,-8.8823444E-1,-3.011339E0,-1.1456177E0,-2.1271972E-1,-5.9010687E0,-2.509491E-1,-1.05098915E1,1.3393438E0,5.547282E-1,1.982727E-1,7.1915287E-1,5.058899E-2,-5.6225587E-2,4.3322753E-2,2.3886941E-1,-2.2485351E-2,1.8465169E-2,-6.2127687E-2,-1.2668304E-1,-3.253361E-1,-1.3509217E-1,-1.5557862E-2,-1.3542329E-1,-6.2683564E-1,-1.4813843E-1,-1.0617743E0,-2.720444E-1],"categories":[],"categories_nodes":[],"categories_segments":[],"categories_sizes":[],"default_left":[0,0,0,0,0,0,0,0,0,0,0,0,0,0,0,0,0,0,0,0,0,0,0,0,0,0,0,0,0,0,0,0,0,0,0,0,0,0,0,0,0,0,0,0,0,0,0,0,0,0,0,0,0,0,0,0,0,0,0,0,0],"id":37,"left_children":[1,3,5,7,9,11,13,-1,15,17,19,21,23,25,-1,-1,-1,-1,27,-1,29,31,33,35,37,39,-1,-1,41,-1,43,45,47,49,51,53,55,-1,57,-1,59,-1,-1,-1,-1,-1,-1,-1,-1,-1,-1,-1,-1,-1,-1,-1,-1,-1,-1,-1,-1],"loss_changes":[4.2739402E4,4.317076E3,6.3572656E3,1.4823535E3,2.5283643E2,2.9406558E2,2.5550254E3,0E0,1.17478516E2,2.319629E1,9.064087E0,4.332548E1,3.932663E1,5.6125E2,0E0,0E0,0E0,0E0,3.0771484E0,0E0,8.020782E0,9.770901E0,2.0436525E0,6.522415E0,5.2325745E0,1.6939453E1,0E0,0E0,1.34375E0,0E0,1.3887329E0,1.4943042E0,7.4810143E0,2.0069005E-1,4.2577648E-1,2.8383942E0,8.2199574E-1,0E0,5.323822E0,0E0,1.144043E1,0E0,0E0,0E0,0E0,0E0,0E0,0E0,0E0,0E0,0E0,0E0,0E0,0E0,0E0,0E0,0E0,0E0,0E0,0E0,0E0],"parents":[2147483647,0,0,1,1,2,2,3,3,4,4,5,5,6,6,8,8,9,9,10,10,11,11,12,12,13,13,18,18,20,20,21,21,22,22,23,23,24,24,25,25,28,28,30,30,31,31,32,32,33,33,34,34,35,35,36,36,38,38,40,40],"right_children":[2,4,6,8,10,12,14,-1,16,18,20,22,24,26,-1,-1,-1,-1,28,-1,30,32,34,36,38,40,-1,-1,42,-1,44,46,48,50,52,54,56,-1,58,-1,60,-1,-1,-1,-1,-1,-1,-1,-1,-1,-1,-1,-1,-1,-1,-1,-1,-1,-1,-1,-1],"split_conditions":[9.3278986E-1,3.623E2,9.5652175E-1,3.514E2,3.7337E2,6.8095E2,9.84843E-1,5.7498903E0,3E0,4E0,1.4E1,9.3858695E-1,6.8548E2,9.782609E-1,-3.7360322E0,5.4064333E-1,2.4245954E0,3.0875245E-1,3E0,1.2877198E-1,4E0,1.6E1,6.7894E2,9.645E2,-9E0,1E0,-1.5991892E0,3.6938477E-1,5E1,2.4192707E-1,3E0,6.7619E2,2.9E1,1.7E1,4.2E1,6.9E1,9E0,-2.1271972E-1,4E1,-2.509491E-1,1E2,1.3393438E0,5.547282E-1,1.982727E-1,7.1915287E-1,5.058899E-2,-5.6225587E-2,4.3322753E-2,2.3886941E-1,-2.2485351E-2,1.8465169E-2,-6.2127687E-2,-1.2668304E-1,-3.253361E-1,-1.3509217E-1,-1.5557862E-2,-1.3542329E-1,-6.2683564E-1,-1.4813843E-1,-1.0617743E0,-2.720444E-1],"split_indices":[6,5,6,5,5,5,6,0,0,10,0,6,5,6,0,0,0,0,17,0,26,0,5,7,36,26,0,0,0,0,17,5,10,0,0,23,0,0,0,0,18,0,0,0,0,0,0,0,0,0,0,0,0,0,0,0,0,0,0,0,0],"split_type":[0,0,0,0,0,0,0,0,0,0,0,0,0,0,0,0,0,0,0,0,0,0,0,0,0,0,0,0,0,0,0,0,0,0,0,0,0,0,0,0,0,0,0,0,0,0,0,0,0,0,0,0,0,0,0,0,0,0,0,0,0],"sum_hessian":[2.36E2,7.8E1,1.58E2,4E1,3.8E1,6.2E1,9.6E1,1E0,3.9E1,2.7E1,1.1E1,3.1E1,3.1E1,9.2E1,4E0,1E0,3.8E1,1E0,2.6E1,1E0,1E1,1.7E1,1.4E1,2.1E1,1E1,4.8E1,4.4E1,1E0,2.5E1,2E0,8E0,4E0,1.3E1,3E0,1.1E1,1.7E1,4E0,2E0,8E0,1E0,4.7E1,2.3E1,2E0,1E0,7E0,3E0,1E0,3E0,1E1,1E0,2E0,8E0,3E0,1.4E1,3E0,1E0,3E0,7E0,1E0,4.6E1,1E0],"tree_param":{"num_deleted":"0","num_feature":"37","num_nodes":"61","size_leaf_vector":"1"}},{"base_weights":[5.8341926E-1,1.7644608E1,-8.427664E0,4.446594E0,1.541245E1,-1.1504735E0,-1.3471286E1,1.9420582E1,9.704262E0,4.5300293E-1,-3.0271883E0,-1.2434194E1,-3.3956604E0,4.268677E-1,1.9662432E1,1.1185738E1,5.455067E0,1.6060628E0,-3.1868842E-1,-2.1718252E0,-4.6062684E0,-1.0432376E1,-1.5542225E0,4.7957763E-1,1.9891316E0,1.1462891E1,2.2670288E-1,1.2233277E-1,5.755908E0,2.3709106E0,9.865478E-1,-4.4338712E-1,1.21234134E-1,-2.2611694E0,-1.4779664E-2,-4.8350763E-1,-1.2734985E-1,-3.320394E-1,-1.0623667E1,2.9331666E-1,1.170622E0,2.2579753E-1,6.3481444E-1,1.8414307E-2,2.7714357E-1,-5.432129E-4,1.0973715E-1,-7.4646E-3,-7.444509E-2,-2.9742433E-2,-2.3444855E-1,-5.563782E-1,-1.1003197E0],"categories":[],"categories_nodes":[],"categories_segments":[],"categories_sizes":[],"default_left":[0,0,0,0,0,0,0,0,0,0,0,0,0,0,0,0,0,0,0,0,0,0,0,0,0,0,0,0,0,0,0,0,0,0,0,0,0,0,0,0,0,0,0,0,0,0,0,0,0,0,0,0,0],"id":38,"left_children":[1,3,5,-1,7,9,11,13,15,17,19,21,-1,-1,23,25,27,29,31,33,35,37,-1,-1,-1,39,-1,-1,41,43,45,47,-1,49,-1,-1,-1,-1,51,-1,-1,-1,-1,-1,-1,-1,-1,-1,-1,-1,-1,-1,-1],"loss_changes":[3.781495E4,4.403574E3,5.893749E3,0E0,1.6418711E3,2.0299228E2,1.5960684E3,8.4634766E1,1.5930884E2,3.3434673E1,3.186728E1,4.1025488E2,0E0,0E0,5.7728516E1,3.580957E1,6.9625244E0,4.7684975E0,4.9286366E0,3.6441803E0,1.4681854E0,4.4992676E1,0E0,0E0,0E0,1.5476074E1,0E0,0E0,6.38208E0,4.744789E0,1.1053085E0,2.3867507E0,0E0,2.738533E0,0E0,0E0,0E0,0E0,4.8242188E1,0E0,0E0,0E0,0E0,0E0,0E0,0E0,0E0,0E0,0E0,0E0,0E0,0E0,0E0],"parents":[2147483647,0,0,1,1,2,2,4,4,5,5,6,6,7,7,8,8,9,9,10,10,11,11,14,14,15,15,16,16,17,17,18,18,19,19,20,20,21,21,25,25,28,28,29,29,30,30,31,31,33,33,38,38],"right_children":[2,4,6,-1,8,10,12,14,16,18,20,22,-1,-1,24,26,28,30,32,34,36,38,-1,-1,-1,40,-1,-1,42,44,46,48,-1,50,-1,-1,-1,-1,52,-1,-1,-1,-1,-1,-1,-1,-1,-1,-1,-1,-1,-1,-1],"split_conditions":[9.3278986E-1,3.5334E2,9.568841E-1,4.446594E0,3.6421E2,6.8047E2,9.861715E-1,1.1E1,3.7285E2,9.3719804E-1,6.8635E2,9.798913E-1,-3.3956604E0,4.268677E-1,1.1E1,1.2E1,1.4E1,6.7476E2,7.7E1,9.5E1,6.2E1,3.5171E2,-1.5542225E0,4.7957763E-1,1.9891316E0,1E0,2.2670288E-1,1.2233277E-1,1.3E1,7.221111E2,2.1E1,4.4E1,1.21234134E-1,2.4E1,-1.4779664E-2,-4.8350763E-1,-1.2734985E-1,-3.320394E-1,1.3E1,2.9331666E-1,1.170622E0,2.2579753E-1,6.3481444E-1,1.8414307E-2,2.7714357E-1,-5.432129E-4,1.0973715E-1,-7.4646E-3,-7.444509E-2,-2.9742433E-2,-2.3444855E-1,-5.563782E-1,-1.1003197E0],"split_indices":[6,5,6,0,5,5,6,25,5,6,5,6,0,0,23,1,0,5,19,18,26,5,0,0,0,28,0,0,14,4,16,17,0,17,0,0,0,0,14,0,0,0,0,0,0,0,0,0,0,0,0,0,0],"split_type":[0,0,0,0,0,0,0,0,0,0,0,0,0,0,0,0,0,0,0,0,0,0,0,0,0,0,0,0,0,0,0,0,0,0,0,0,0,0,0,0,0,0,0,0,0,0,0,0,0,0,0,0,0],"sum_hessian":[2.44E2,8.4E1,1.6E2,5E0,7.9E1,6.6E1,9.4E1,4.5E1,3.4E1,3.6E1,3E1,9.1E1,3E0,1E0,4.4E1,2.4E1,1E1,1.4E1,2.2E1,2.1E1,9E0,5.8E1,3.3E1,1E0,4.3E1,2.3E1,1E0,1E0,9E0,5E0,9E0,2.1E1,1E0,2E1,1E0,8E0,1E0,2E0,5.6E1,1E0,2.2E1,2E0,7E0,1E0,4E0,1E0,8E0,1E1,1.1E1,1E0,1.9E1,5E0,5.1E1],"tree_param":{"num_deleted":"0","num_feature":"37","num_nodes":"53","size_leaf_vector":"1"}},{"base_weights":[-4.636527E-1,-7.650068E0,1.4801525E1,-1.2493087E1,-2.038826E0,2.6087797E0,1.2153606E1,-2.8983885E1,-1.1064397E1,-1.9736451E-1,-5.7902527E0,7.2515655E0,1.4732923E1,-7.81424E-1,-3.1654966E0,-7.7051616E0,-1.2246504E0,1.7418485E0,-1.2491362E0,-7.11615E0,-3.2223816E0,6.0816445E0,9.5527345E-1,1.5147266E1,4.7117105E-1,-2.2365418E-1,-7.8520745E-1,3.182414E-1,9.4298375E-1,-6.786242E-1,-1.8885092E0,-3.0911714E-1,-7.864797E0,-3.3270266E-2,-3.50649E0,-8.267212E-2,6.5366497E0,1.54143305E1,2.7664796E-1,2.8664146E-2,1.3173676E-1,-1.8753052E-2,-8.406197E-2,-2.815328E-1,-1.1435669E-1,-8.196905E-1,-2.1058045E-1,-8.788452E-2,-3.72509E-1,7.0379716E-1,-7.422485E-2,1.5970932E0,6.968781E-1],"categories":[],"categories_nodes":[],"categories_segments":[],"categories_sizes":[],"default_left":[0,0,0,0,0,0,0,0,0,0,0,0,0,0,0,0,0,0,0,0,0,0,0,0,0,0,0,0,0,0,0,0,0,0,0,0,0,0,0,0,0,0,0,0,0,0,0,0,0,0,0,0,0],"id":39,"left_children":[1,3,5,7,9,-1,11,13,15,17,19,21,23,-1,-1,25,-1,27,29,31,33,35,-1,37,-1,-1,-1,-1,39,41,43,-1,45,-1,47,-1,49,51,-1,-1,-1,-1,-1,-1,-1,-1,-1,-1,-1,-1,-1,-1,-1],"loss_changes":[2.5015564E4,4.186708E3,1.8645537E3,1.6348115E3,5.0314905E2,0E0,6.644424E2,9.191553E1,2.15375E2,1.0415627E2,5.8782593E1,3.8239746E0,9.056641E1,0E0,0E0,9.169922E-1,0E0,1.7713737E1,1.0755817E1,2.0887878E1,7.043213E0,6.198419E1,0E0,7.969629E1,0E0,0E0,0E0,0E0,2.8167992E0,1.3539038E0,7.136879E0,0E0,5.6903076E0,0E0,1.8958511E0,0E0,6.725806E1,5.7930664E1,0E0,0E0,0E0,0E0,0E0,0E0,0E0,0E0,0E0,0E0,0E0,0E0,0E0,0E0,0E0],"parents":[2147483647,0,0,1,1,2,2,3,3,4,4,6,6,7,7,8,8,9,9,10,10,11,11,12,12,15,15,17,17,18,18,19,19,20,20,21,21,23,23,28,28,29,29,30,30,32,32,34,34,36,36,37,37],"right_children":[2,4,6,8,10,-1,12,14,16,18,20,22,24,-1,-1,26,-1,28,30,32,34,36,-1,38,-1,-1,-1,-1,40,42,44,-1,46,-1,48,-1,50,52,-1,-1,-1,-1,-1,-1,-1,-1,-1,-1,-1,-1,-1,-1,-1],"split_conditions":[1.0695E3,6.08E2,3.5645E2,2.51E2,6.8452E2,2.6087797E0,1.73225E3,3.5534E2,3.5238E2,6.7794E2,1.8E1,4.4E1,4.9E1,-7.81424E-1,-3.1654966E0,3.205E2,-1.2246504E0,6.7462E2,6.8112E2,6.8897E2,2.4E1,1.7E1,9.5527345E-1,3.6863E2,4.7117105E-1,-2.2365418E-1,-7.8520745E-1,3.182414E-1,2.1E1,6.7973E2,-7E0,-3.0911714E-1,6.9556E2,-3.3270266E-2,1.7E1,-8.267212E-2,3.793E2,8.7E1,2.7664796E-1,2.8664146E-2,1.3173676E-1,-1.8753052E-2,-8.406197E-2,-2.815328E-1,-1.1435669E-1,-8.196905E-1,-2.1058045E-1,-8.788452E-2,-3.72509E-1,7.0379716E-1,-7.422485E-2,1.5970932E0,6.968781E-1],"split_indices":[8,7,5,7,5,0,8,5,5,5,10,10,0,0,0,7,0,5,5,5,14,0,0,5,0,0,0,0,0,5,35,0,5,0,13,0,5,27,0,0,0,0,0,0,0,0,0,0,0,0,0,0,0],"split_type":[0,0,0,0,0,0,0,0,0,0,0,0,0,0,0,0,0,0,0,0,0,0,0,0,0,0,0,0,0,0,0,0,0,0,0,0,0,0,0,0,0,0,0,0,0,0,0,0,0,0,0,0,0],"sum_hessian":[2.26E2,1.54E2,7.2E1,8.2E1,7.2E1,1.2E1,6E1,5E0,7.7E1,4.9E1,2.3E1,2.2E1,3.8E1,1E0,4E0,2.2E1,5.5E1,1.7E1,3.2E1,1.4E1,9E0,1.7E1,5E0,3.6E1,2E0,1E0,2.1E1,5E0,1.2E1,1.8E1,1.4E1,3E0,1.1E1,1E0,8E0,1E0,1.6E1,3.5E1,1E0,5E0,7E0,5E0,1.3E1,5E0,9E0,1E1,1E0,1E0,7E0,1.5E1,1E0,3.2E1,3E0],"tree_param":{"num_deleted":"0","num_feature":"37","num_nodes":"53","size_leaf_vector":"1"}},{"base_weights":[6.202146E-1,1.6116621E1,-6.6089087E0,5.455701E0,1.3789522E1,-8.2544196E-1,-1.1290771E1,1.9325645E1,1.0503507E1,1.3289812E0,-2.9014475E0,-1.0218695E1,-3.1785736E0,5.3895265E-1,1.966751E0,7.0137877E0,1.254802E1,3.0765662E0,3.6707765E-1,-1.856294E0,-4.222515E0,-8.457245E0,-1.3127855E0,7.788739E-1,1.9667969E0,2.0245402E0,1.1228014E1,3.649885E-1,2.063738E0,1.3004848E-1,1.2891845E-1,-2.2288687E0,-1.14906E0,-2.809143E0,-5.2847445E-1,-5.102411E-1,-8.979976E0,-7.854004E-2,3.145996E-1,1.1446087E0,2.779053E-1,2.1203613E-2,2.3370159E-1,5.9688896E-2,-9.648031E-3,-4.561564E-2,-2.4863079E-1,4.1790772E-2,-1.3696018E-1,-3.0812684E-1,-3.1607058E-2,-3.9305878E-1,-9.229256E-1],"categories":[],"categories_nodes":[],"categories_segments":[],"categories_sizes":[],"default_left":[0,0,0,0,0,0,0,0,0,0,0,0,0,0,0,0,0,0,0,0,0,0,0,0,0,0,0,0,0,0,0,0,0,0,0,0,0,0,0,0,0,0,0,0,0,0,0,0,0,0,0,0,0],"id":40,"left_children":[1,3,5,-1,7,9,11,13,15,17,19,21,-1,-1,-1,23,25,27,29,31,33,35,-1,-1,37,-1,39,-1,41,43,-1,45,47,49,-1,-1,51,-1,-1,-1,-1,-1,-1,-1,-1,-1,-1,-1,-1,-1,-1,-1,-1],"loss_changes":[2.6768564E4,6.0462324E3,4.404295E3,0E0,1.1250137E3,3.3482794E2,1.6526855E3,1.787207E1,2.5445996E2,6.106797E1,4.462906E1,3.3479297E2,0E0,0E0,0E0,6.2904663E1,6.734131E1,1.6349792E-2,5.296499E0,3.4993362E0,9.175598E0,5.4140137E1,0E0,0E0,1.5452421E1,0E0,1.7937988E1,0E0,3.046669E0,2.2783968E0,0E0,5.2549744E0,4.028185E0,5.1319427E0,0E0,0E0,2.4141846E1,0E0,0E0,0E0,0E0,0E0,0E0,0E0,0E0,0E0,0E0,0E0,0E0,0E0,0E0,0E0,0E0],"parents":[2147483647,0,0,1,1,2,2,4,4,5,5,6,6,7,7,8,8,9,9,10,10,11,11,15,15,16,16,17,17,18,18,19,19,20,20,21,21,24,24,26,26,28,28,29,29,31,31,32,32,33,33,36,36],"right_children":[2,4,6,-1,8,10,12,14,16,18,20,22,-1,-1,-1,24,26,28,30,32,34,36,-1,-1,38,-1,40,-1,42,44,-1,46,48,50,-1,-1,52,-1,-1,-1,-1,-1,-1,-1,-1,-1,-1,-1,-1,-1,-1,-1,-1],"split_conditions":[9.2035025E-1,3.5216E2,9.588768E-1,5.455701E0,3.5899E2,6.8047E2,9.868358E-1,1.4E1,1.73225E3,9.3423915E-1,6.8548E2,9.8025364E-1,-3.1785736E0,5.3895265E-1,1.966751E0,1.7E3,1.767E3,9.3140095E-1,7.3E1,6.2E1,8.6675E2,3.5188E2,-1.3127855E0,7.788739E-1,1.7E1,2.0245402E0,9.4E1,3.649885E-1,7.221111E2,9.3599033E-1,1.2891845E-1,2E1,8.94E2,7.88E2,-5.2847445E-1,-5.102411E-1,7E0,-7.854004E-2,3.145996E-1,1.1446087E0,2.779053E-1,2.1203613E-2,2.3370159E-1,5.9688896E-2,-9.648031E-3,-4.561564E-2,-2.4863079E-1,4.1790772E-2,-1.3696018E-1,-3.0812684E-1,-3.1607058E-2,-3.9305878E-1,-9.229256E-1],"split_indices":[6,5,6,0,5,5,6,16,8,6,5,6,0,0,0,7,8,6,11,25,8,5,0,0,0,0,14,0,4,6,0,25,7,7,0,0,24,0,0,0,0,0,0,0,0,0,0,0,0,0,0,0,0],"split_type":[0,0,0,0,0,0,0,0,0,0,0,0,0,0,0,0,0,0,0,0,0,0,0,0,0,0,0,0,0,0,0,0,0,0,0,0,0,0,0,0,0,0,0,0,0,0,0,0,0,0,0,0,0],"sum_hessian":[2.37E2,7.5E1,1.62E2,3E0,7.2E1,7.3E1,8.9E1,2.5E1,4.7E1,3.6E1,3.7E1,8.6E1,3E0,1E0,2.4E1,1.9E1,2.8E1,1.2E1,2.4E1,2.2E1,1.5E1,5.6E1,3E1,1.6E1,3E0,2E0,2.6E1,6E0,6E0,2E1,4E0,1.3E1,9E0,8E0,7E0,9E0,4.7E1,1E0,2E0,2.5E1,1E0,1E0,5E0,6E0,1.4E1,2E0,1.1E1,1E0,8E0,7E0,1E0,3E0,4.4E1],"tree_param":{"num_deleted":"0","num_feature":"37","num_nodes":"53","size_leaf_vector":"1"}},{"base_weights":[1.6287151E-1,-6.386342E0,1.220553E1,-1.0830882E1,-2.43603E0,1.920061E1,9.075247E0,-9.648735E0,-2.9401805E0,-4.5057764E0,-3.579587E-1,7.328288E-1,1.9884623E0,1.0780024E1,3.928481E0,-7.560957E0,-1.1221446E0,-6.5279503E0,-3.1893277E0,1.0778937E0,-1.3934678E0,7.045748E0,1.1890776E1,4.1895905E0,-1.2463379E-2,-1.6632538E-1,-7.689274E0,-4.4031982E0,-9.335338E0,1.4527283E0,-3.8044837E0,1.1940444E0,-5.064087E-2,-6.609712E-1,-2.4993653E0,3.7104084E0,8.666534E0,1.2363261E1,5.256317E-1,2.537747E0,5.5242157E-1,-7.818896E-1,-1.7706756E-1,-1.5074056E-1,-4.879218E-1,-2.6291096E-1,-1.2031174E0,3.1469727E-1,-1.6101075E-2,-2.0358093E-1,-4.672125E-1,1.4153771E-1,5.154826E-2,-5.147502E-2,-1.17175296E-1,-1.3109843E-1,-3.4255493E-1,-7.461548E-2,4.7509524E-1,9.179408E-1,2.538208E-1,1.2599366E0,2.6400757E-1,2.8046113E-1,2.0141602E-2],"categories":[],"categories_nodes":[],"categories_segments":[],"categories_sizes":[],"default_left":[0,0,0,0,0,0,0,0,0,0,0,0,0,0,0,0,0,0,0,0,0,0,0,0,0,0,0,0,0,0,0,0,0,0,0,0,0,0,0,0,0,0,0,0,0,0,0,0,0,0,0,0,0,0,0,0,0,0,0,0,0,0,0,0,0],"id":41,"left_children":[1,3,5,7,9,11,13,15,-1,17,19,-1,-1,21,23,25,-1,27,29,31,33,35,37,39,-1,-1,41,43,45,47,49,51,-1,53,55,57,59,61,-1,63,-1,-1,-1,-1,-1,-1,-1,-1,-1,-1,-1,-1,-1,-1,-1,-1,-1,-1,-1,-1,-1,-1,-1,-1,-1],"loss_changes":[1.9479955E4,2.7827861E3,1.730752E3,1.3628281E3,3.6828012E2,6.54209E1,5.0164404E2,1.5156494E2,0E0,9.364996E1,6.692289E1,0E0,0E0,1.0702197E2,1.8513367E1,1.2941284E1,0E0,5.4334717E1,8.548334E1,4.1010113E0,1.940971E1,3.8119934E1,4.1594727E1,2.1254425E1,0E0,0E0,1.147229E1,7.808029E0,7.684204E1,1.1442969E1,2.8852814E1,1.9737797E0,0E0,6.6651964E-1,6.5157547E0,3.1368431E1,1.8452148E0,3.7902832E1,0E0,5.046459E0,0E0,0E0,0E0,0E0,0E0,0E0,0E0,0E0,0E0,0E0,0E0,0E0,0E0,0E0,0E0,0E0,0E0,0E0,0E0,0E0,0E0,0E0,0E0,0E0,0E0],"parents":[2147483647,0,0,1,1,2,2,3,3,4,4,5,5,6,6,7,7,9,9,10,10,13,13,14,14,15,15,17,17,18,18,19,19,20,20,21,21,22,22,23,23,26,26,27,27,28,28,29,29,30,30,31,31,33,33,34,34,35,35,36,36,37,37,39,39],"right_children":[2,4,6,8,10,12,14,16,-1,18,20,-1,-1,22,24,26,-1,28,30,32,34,36,38,40,-1,-1,42,44,46,48,50,52,-1,54,56,58,60,62,-1,64,-1,-1,-1,-1,-1,-1,-1,-1,-1,-1,-1,-1,-1,-1,-1,-1,-1,-1,-1,-1,-1,-1,-1,-1,-1],"split_conditions":[1.0695E3,4.08E2,3.5852E2,3.5592E2,8.995E2,1.6E1,3.7113E2,3.533E2,-2.9401805E0,1.7E1,6.7851E2,7.328288E-1,1.9884623E0,1.7245E3,6.731E2,2.6425E2,-1.1221446E0,1.4E1,1.3E1,8.8E1,6.8234E2,2.2E1,9.4E1,2E1,-1.2463379E-2,-1.6632538E-1,5E1,6.8426E2,3E0,3.9E1,3.1E1,1.035E3,-5.064087E-2,8.7E1,2.7E1,1.62975E3,5.3E1,9.4E1,5.256317E-1,3.793E2,5.5242157E-1,-7.818896E-1,-1.7706756E-1,-1.5074056E-1,-4.879218E-1,-2.6291096E-1,-1.2031174E0,3.1469727E-1,-1.6101075E-2,-2.0358093E-1,-4.672125E-1,1.4153771E-1,5.154826E-2,-5.147502E-2,-1.17175296E-1,-1.3109843E-1,-3.4255493E-1,-7.461548E-2,4.7509524E-1,9.179408E-1,2.538208E-1,1.2599366E0,2.6400757E-1,2.8046113E-1,2.0141602E-2],"split_indices":[8,7,5,5,7,24,5,5,0,14,5,0,0,8,5,8,0,14,34,17,5,0,16,22,0,0,0,5,15,0,33,8,0,27,0,8,11,14,0,5,0,0,0,0,0,0,0,0,0,0,0,0,0,0,0,0,0,0,0,0,0,0,0,0,0],"split_type":[0,0,0,0,0,0,0,0,0,0,0,0,0,0,0,0,0,0,0,0,0,0,0,0,0,0,0,0,0,0,0,0,0,0,0,0,0,0,0,0,0,0,0,0,0,0,0,0,0,0,0,0,0,0,0,0,0,0,0,0,0,0,0,0,0],"sum_hessian":[2.45E2,1.59E2,8.6E1,7.4E1,8.5E1,2.5E1,6.1E1,7.1E1,3E0,4.2E1,4.3E1,2E0,2.3E1,4.5E1,1.6E1,3.3E1,3.8E1,1.5E1,2.7E1,1.8E1,2.5E1,1.2E1,3.3E1,1.5E1,1E0,1E0,3.2E1,1E1,5E0,3E0,2.4E1,1.7E1,1E0,1.6E1,9E0,5E0,7E0,3E1,3E0,8E0,7E0,3.1E1,1E0,2E0,8E0,2E0,3E0,1E0,2E0,9E0,1.5E1,1.2E1,5E0,1.4E1,2E0,5E0,4E0,1E0,4E0,6E0,1E0,2.9E1,1E0,7E0,1E0],"tree_param":{"num_deleted":"0","num_feature":"37","num_nodes":"65","size_leaf_vector":"1"}},{"base_weights":[7.6777107E-1,1.2542676E1,-4.9520235E0,4.8973756E0,1.0564339E1,-5.1613516E-1,-7.7353806E0,1.5067564E1,7.8497643E0,4.9354956E-1,-1.7778646E0,-5.8702426E0,-1.0000009E1,1.86177E0,1.2539119E0,4.3177266E0,8.587923E0,1.4276297E0,-4.9277343E-2,-2.91911E0,-1.1497542E0,-6.731909E0,-4.394634E0,-8.724866E-1,-1.2885842E0,8.915406E-2,4.5711914E-1,3.4729737E-1,9.034945E0,1.60849E0,2.2831218E-2,-2.708644E-1,5.592128E-1,-5.354004E-2,-3.1244779E0,-4.3442994E-1,-1.6500448E0,-4.0573034E-1,-7.1315866E0,-2.279799E0,-5.652537E0,9.2404383E-1,7.1582034E-2,2.0933317E-1,7.7475995E-2,1.8733723E-2,-3.3579033E-2,9.947388E-2,-3.5306804E-2,-1.8952434E-1,-4.1872102E-1,-7.0627265E-2,1.4990235E-2,-1.7232834E-1,-4.222107E-2,-1.560028E-1,-7.269916E-1,-3.1510484E-1,1.09388225E-1,-1.5800934E-1,-5.830562E-1],"categories":[],"categories_nodes":[],"categories_segments":[],"categories_sizes":[],"default_left":[0,0,0,0,0,0,0,0,0,0,0,0,0,0,0,0,0,0,0,0,0,0,0,0,0,0,0,0,0,0,0,0,0,0,0,0,0,0,0,0,0,0,0,0,0,0,0,0,0,0,0,0,0,0,0,0,0,0,0,0,0],"id":42,"left_children":[1,3,5,-1,7,9,11,13,15,17,19,21,23,-1,-1,25,27,29,31,33,35,37,39,-1,-1,-1,-1,-1,41,43,-1,45,47,-1,49,51,53,-1,55,57,59,-1,-1,-1,-1,-1,-1,-1,-1,-1,-1,-1,-1,-1,-1,-1,-1,-1,-1,-1,-1],"loss_changes":[1.710167E4,5.4646816E3,2.107287E3,0E0,8.596699E2,8.623204E1,3.8480078E2,2.6864258E1,9.849414E1,1.9338017E1,1.814859E1,4.670459E1,5.6845703E1,0E0,0E0,5.477188E0,6.465454E1,2.669487E0,3.5223093E0,3.2225266E0,6.798441E0,9.548218E0,5.361978E1,0E0,0E0,0E0,0E0,0E0,5.83479E1,3.2288952E0,0E0,6.2814E-1,3.1324642E0,0E0,3.8213425E0,1.6943369E0,3.515091E-1,0E0,1.1780029E1,3.577938E1,1.6621094E0,0E0,0E0,0E0,0E0,0E0,0E0,0E0,0E0,0E0,0E0,0E0,0E0,0E0,0E0,0E0,0E0,0E0,0E0,0E0,0E0],"parents":[2147483647,0,0,1,1,2,2,4,4,5,5,6,6,7,7,8,8,9,9,10,10,11,11,12,12,15,15,16,16,17,17,18,18,19,19,20,20,21,21,22,22,28,28,29,29,31,31,32,32,34,34,35,35,36,36,38,38,39,39,40,40],"right_children":[2,4,6,-1,8,10,12,14,16,18,20,22,24,-1,-1,26,28,30,32,34,36,38,40,-1,-1,-1,-1,-1,42,44,-1,46,48,-1,50,52,54,-1,56,58,60,-1,-1,-1,-1,-1,-1,-1,-1,-1,-1,-1,-1,-1,-1,-1,-1,-1,-1,-1,-1],"split_conditions":[9.3278986E-1,3.5216E2,9.5392513E-1,4.8973756E0,8.855072E-1,6.8034E2,9.782609E-1,3.5432E2,1.1E1,9.3550724E-1,2.8E1,4E0,9.8363525E-1,1.86177E0,1.2539119E0,3E0,-1.2E1,1.06E3,5E0,2.1E1,6.8343E2,3.5186E2,9.75E-1,-8.724866E-1,-1.2885842E0,8.915406E-2,4.5711914E-1,3.4729737E-1,1.974E3,6.7502E2,2.2831218E-2,9.3599033E-1,4.1E1,-5.354004E-2,8.87E2,7E1,7.6E1,-4.0573034E-1,1E0,9.66244E-1,2.6425E2,9.2404383E-1,7.1582034E-2,2.0933317E-1,7.7475995E-2,1.8733723E-2,-3.3579033E-2,9.947388E-2,-3.5306804E-2,-1.8952434E-1,-4.1872102E-1,-7.0627265E-2,1.4990235E-2,-1.7232834E-1,-4.222107E-2,-1.560028E-1,-7.269916E-1,-3.1510484E-1,1.09388225E-1,-1.5800934E-1,-5.830562E-1],"split_indices":[6,5,6,0,6,5,6,5,25,6,10,35,6,0,0,18,35,8,35,0,5,5,6,0,0,0,0,0,8,5,0,6,0,0,8,22,19,0,26,6,8,0,0,0,0,0,0,0,0,0,0,0,0,0,0,0,0,0,0,0,0],"split_type":[0,0,0,0,0,0,0,0,0,0,0,0,0,0,0,0,0,0,0,0,0,0,0,0,0,0,0,0,0,0,0,0,0,0,0,0,0,0,0,0,0,0,0,0,0,0,0,0,0,0,0,0,0,0,0,0,0,0,0,0,0],"sum_hessian":[2.52E2,8.2E1,1.7E2,3E0,7.9E1,6.6E1,1.04E2,2.8E1,5.1E1,3.7E1,2.9E1,5.9E1,4.5E1,9E0,1.9E1,1E1,4.1E1,1.3E1,2.4E1,9E0,2E1,